svm_type c_svc
kernel_type rbf
gamma 0.0078125
nr_class 2
total_sv 258
rho 0.995949
label 1 -1
nr_sv 129 129
SV
0.03125 1:-1 2:-0.719792 3:-0.979244 4:-1 5:-1 6:-1 7:0.862069 8:-0.862069 
0.03125 1:-1 2:-0.979244 3:-1 4:-1 5:-1 6:-1 7:1 8:-1 
0.03125 1:-0.961905 2:-0.906597 3:-0.970348 4:-0.872664 5:-0.911385 6:-0.818182 7:0.482353 8:-0.529412 
0.03125 1:-0.828571 2:-0.942179 3:-0.899185 4:-0.580122 5:-0.46 6:-0.766234 7:-0.327586 8:0.172414 
0.03125 1:-1 2:-0.995552 3:-0.905115 4:-1 5:-1 6:-1 7:-0.910448 8:0.910448 
0.03125 1:-0.92381 2:-0.988139 3:-0.227576 4:-0.959386 5:-0.04 6:-0.984762 7:-0.969981 8:0.954972 
0.03125 1:-0.542857 2:-0.229059 3:-0.989622 4:-0.764279 5:-0.872941 6:0.548387 7:0.887477 8:-0.974592 
0.03125 1:-1 2:-0.773165 3:-0.998517 4:-1 5:-1 6:-1 7:0.987013 8:-0.987013 
0.03125 1:-0.980952 2:-0.829503 3:-0.872498 4:-0.973209 5:-0.975172 6:-0.977011 7:0.138614 8:-0.148515 
0.03125 1:-1 2:-0.955523 3:-0.842847 4:-1 5:-1 6:-1 7:-0.558824 8:0.558824 
0.03125 1:-0.714286 2:-0.82209 3:-0.985174 4:-0.440162 5:-0.68 6:0.2 7:0.655172 8:-0.862069 
0.03125 1:-0.714286 2:-0.918458 3:-0.903632 4:-0.398693 5:-0.382857 6:-0.625 7:-0.185185 8:-0.037037 
0.03125 1:-0.980952 2:-0.5404 3:-0.90808 4:-0.985491 5:-0.99074 6:-0.968254 7:0.662198 8:-0.66756 
0.03125 1:-1 2:-0.995552 3:-0.998517 4:-1 5:-1 6:-1 7:0.5 8:-0.5 
0.03125 1:-0.980952 2:-0.322461 3:-0.90808 4:-0.989593 5:-0.993712 6:-0.968254 7:0.757692 8:-0.761538 
0.03125 1:-1 2:-0.995552 3:-1 4:-1 5:-1 6:-1 7:1 8:-1 
0.03125 1:-0.92381 2:-0.922906 3:-0.99407 4:-0.639216 5:-0.794286 7:0.733333 8:-0.866667 
0.03125 1:-1 2:-0.95404 3:-0.961453 4:-1 5:-1 6:-1 7:0.0877193 8:-0.0877193 
0.03125 1:-0.904762 2:-0.288362 3:-0.976279 4:-0.94599 5:-0.970309 6:-0.52381 7:0.916168 8:-0.936128 
0.03125 1:-1 2:-0.799852 3:-0.911045 4:-1 5:-1 6:-1 7:0.384615 8:-0.384615 
0.03125 1:-1 2:-0.911045 3:-0.983692 4:-1 5:-1 6:-1 7:0.690141 8:-0.690141 
0.03125 1:-0.866667 2:-0.99407 3:-0.81616 4:-0.71939 5:0.832727 6:-0.89313 7:-0.940741 8:0.837037 
0.03125 1:-0.980952 2:-0.945145 3:-0.995552 4:-0.868006 5:-0.924211 6:-0.5 7:0.804878 8:-0.853659 
0.03125 1:-0.409524 2:-0.974796 3:-0.873981 4:0.261389 5:0.86 6:-0.465517 7:-0.744361 8:0.278195 
0.03125 1:-1 2:-0.896219 3:-1 4:-1 5:-1 6:-1 7:1 8:-1 
0.03125 1:-1 2:-0.957005 3:-0.750927 4:-1 5:-1 6:-1 7:-0.705584 8:0.705584 
0.03125 1:-0.980952 2:-0.897702 3:-0.756857 4:-0.976873 5:-0.958857 6:-0.987879 7:-0.410256 8:0.401709 
0.03125 1:-0.809524 2:-0.832468 3:-0.949592 4:-0.655302 5:-0.765854 6:-0.545455 7:0.43949 8:-0.566879 
0.03125 1:-0.961905 2:-0.555226 3:-0.997035 4:-0.964396 5:-0.980927 7:0.973684 8:-0.986842 
0.03125 1:-1 2:-0.857672 3:-0.897702 4:-1 5:-1 6:-1 7:0.163636 8:-0.163636 
0.03125 1:-1 2:-0.871016 3:-0.995552 4:-1 5:-1 6:-1 7:0.933333 8:-0.933333 
0.03125 1:-0.980952 2:-0.988139 3:-0.905115 4:-0.925866 5:-0.68 6:-0.969231 7:-0.780822 8:0.753425 
0.03125 1:-1 2:-0.919941 3:-0.992587 4:-1 5:-1 6:-1 7:0.830508 8:-0.830508 
0.03125 1:-1 2:-0.728688 3:-1 4:-1 5:-1 6:-1 7:1 8:-1 
0.03125 1:-0.485714 2:-0.504818 3:-0.829503 4:-0.69303 5:-0.784598 6:-0.619718 7:0.403361 8:-0.516807 
0.03125 1:-1 2:-0.830986 3:-1 4:-1 5:-1 6:-1 7:1 8:-1 
0.03125 1:-1 2:-0.99407 3:0.12083 4:-1 5:-1 6:-1 7:-0.989474 8:0.989474 
0.03125 1:0.0857143 2:-0.785026 3:-0.871016 4:0.0673723 5:-0.187327 6:-0.208333 7:0.00346021 8:-0.397924 
0.03125 1:-0.961905 2:-0.983692 3:-0.555226 4:-0.96542 5:-0.556923 6:-0.986755 7:-0.929712 8:0.916933 
0.03125 1:-1 2:-0.979244 3:-0.814678 4:-1 5:-1 6:-1 7:-0.798561 8:0.798561 
0.03125 1:-0.733333 2:-0.820608 3:-0.976279 4:-0.498247 5:-0.701333 6:-0.0666667 7:0.602649 8:-0.788079 
0.03125 1:-1 2:-0.614529 3:-0.844329 4:-1 5:-1 6:-1 7:0.424658 8:-0.424658 
0.03125 1:-1 2:-1 3:-0.99407 4:-1 5:-1 6:-1 7:-1 8:1 
0.03125 1:-1 2:-0.0244626 3:-0.998517 4:-1 5:-1 6:-1 7:0.996965 8:-0.996965 
0.03125 1:-1 2:-1 3:-1 4:-1 5:-1 6:-1 7:-1 8:-1 
0.03125 1:-0.961905 2:-0.830986 3:-0.985174 4:-0.914099 5:-0.950345 6:-0.666667 7:0.809524 8:-0.84127 
0.03125 1:-0.961905 2:-0.980726 3:-0.66642 4:-0.954902 5:-0.616 6:-0.982379 7:-0.891667 8:0.875 
0.03125 1:-0.92381 2:-0.979244 3:-0.792439 4:-0.862993 5:-0.36 6:-0.944444 7:-0.822785 8:0.772152 
0.03125 1:-0.714286 2:-0.82209 3:-0.985174 4:-0.440162 5:-0.68 6:0.2 7:0.655172 8:-0.862069 
0.03125 1:-1 2:-0.986657 3:-0.415864 4:-1 5:-1 6:-1 7:-0.955335 8:0.955335 
0.03125 1:-1 2:-0.611564 3:-1 4:-1 5:-1 6:-1 7:1 8:-1 
0.03125 1:-1 2:-0.997035 3:-0.933284 4:-1 5:-1 6:-1 7:-0.914894 8:0.914894 
0.03125 1:-0.961905 2:-0.933284 3:-0.971831 4:-0.836007 5:-0.877447 6:-0.809524 7:0.363636 8:-0.424242 
0.03125 1:-0.980952 2:-0.955523 3:-0.939214 4:-0.924837 5:-0.907097 6:-0.952381 7:-0.166667 8:0.138889 
0.03125 1:-0.961905 2:-0.995552 3:-0.722758 4:-0.943627 5:0.152 6:-0.978836 7:-0.96875 8:0.947917 
0.03125 1:-0.219048 2:-0.885841 3:-0.613047 4:-0.414558 5:0.000677966 6:-0.728477 7:-0.593668 8:0.377309 
0.03125 1:-0.980952 2:-0.90808 3:-0.5404 4:-0.985491 5:-0.954286 6:-0.993569 7:-0.66756 8:0.662198 
0.03125 1:-1 2:-0.81616 3:-0.942179 4:-1 5:-1 6:-1 7:0.521472 8:-0.521472 
0.03125 1:0.942857 2:-0.432172 3:-0.924388 4:0.0298507 5:-0.394309 6:0.333333 7:0.429104 8:-0.809701 
0.03125 1:-0.942857 2:-0.704967 3:-0.951075 4:-0.930914 5:-0.957228 6:-0.833333 7:0.693617 8:-0.719149 
0.03125 1:-1 2:-1 3:-0.971831 4:-1 5:-1 6:-1 7:-1 8:1 
0.03125 1:-0.67619 2:-0.968866 3:-0.988139 4:1 5:0.288421 6:0.36 7:-0.0869565 8:-0.652174 
0.03125 1:-0.828571 2:-0.942179 3:-0.899185 4:-0.580122 5:-0.46 6:-0.766234 7:-0.327586 8:0.172414 
0.03125 1:-1 2:-0.925871 3:-0.979244 4:-1 5:-1 6:-1 7:0.5625 8:-0.5625 
0.03125 1:-1 2:-0.992587 3:-0.804299 4:-1 5:-1 6:-1 7:-0.927007 8:0.927007 
0.03125 1:-0.866667 2:-0.906597 3:-0.995552 4:-0.481064 5:-0.712 6:0.4 7:0.726027 8:-0.917808 
0.03125 1:-1 2:-0.997035 3:-0.830986 4:-1 5:-1 6:-1 7:-0.965517 8:0.965517 
0.03125 1:-0.942857 2:-0.704967 3:-0.879911 4:-0.942631 5:-0.957228 6:-0.928571 7:0.40636 8:-0.427562 
0.03125 1:-1 2:-1 3:-1 4:-1 5:-1 6:-1 7:-1 8:-1 
0.03125 1:-0.980952 2:-0.992587 3:-0.282431 4:-0.988956 5:-0.52 6:-0.995876 7:-0.979592 8:0.97551 
0.03125 1:-0.885714 2:-0.951075 3:-0.866568 4:-0.74829 5:-0.556923 6:-0.875 7:-0.488372 8:0.395349 
0.03125 1:-0.352381 2:-0.0748703 3:-0.796887 4:-0.768553 5:-0.851185 6:-0.602339 7:0.569811 8:-0.655346 
0.03125 1:-1 2:-0.911045 3:-0.799852 4:-1 5:-1 6:-1 7:-0.384615 8:0.384615 
0.03125 1:-0.942857 2:-0.860638 3:-0.915493 4:-0.894576 5:-0.910928 6:-0.9 7:0.220779 8:-0.25974 
0.03125 1:-1 2:-1 3:-0.853225 4:-1 5:-1 6:-1 7:-1 8:1 
0.03125 1:-1 2:-0.942179 3:-0.974796 4:-1 5:-1 6:-1 7:0.392857 8:-0.392857 
0.03125 1:-0.485714 2:-0.968866 3:-0.915493 4:0.391597 5:0.62 6:-0.357143 7:-0.6 8:0.0857143 
0.03125 1:-1 2:-0.992587 3:-0.957005 4:-1 5:-1 6:-1 7:-0.705882 8:0.705882 
0.03125 1:-0.961905 2:-0.875463 3:-1 4:-0.874145 5:-0.933023 6:1 7:0.953488 8:-1 
0.03125 1:-0.980952 2:-0.985174 3:-0.968866 4:-0.830882 5:-0.738182 6:-0.909091 7:-0.375 8:0.3125 
0.03125 1:-1 2:-1 3:-0.642698 4:-1 5:-1 6:-1 7:-1 8:1 
0.03125 1:-1 2:-0.998517 3:-1 4:-1 5:-1 6:-1 7:1 8:-1 
0.03125 1:-0.447619 2:-0.951075 3:-0.750927 4:-0.317647 5:0.347097 6:-0.705584 7:-0.713043 8:0.46087 
0.03125 1:-0.733333 2:-0.949592 3:-0.977761 4:0.202614 5:-0.16 6:-0.0344828 7:0.0793651 8:-0.52381 
0.03125 1:-0.714286 2:-0.918458 3:-0.903632 4:-0.398693 5:-0.382857 6:-0.625 7:-0.185185 8:-0.037037 
0.03125 1:-0.885714 2:-0.992587 3:-0.906597 4:-0.561208 5:0.570909 6:-0.826087 7:-0.864865 8:0.702703 
0.03125 1:-1 2:-0.922906 3:-0.937732 4:-1 5:-1 6:-1 7:0.106383 8:-0.106383 
0.03125 1:-1 2:-0.980726 3:-0.94811 4:-1 5:-1 6:-1 7:-0.458333 8:0.458333 
0.03125 1:-0.485714 2:-0.915493 3:-0.968866 4:0.391597 5:-0.0742857 6:0.125 7:0.0857143 8:-0.6 
0.03125 1:-0.961905 2:-0.968866 3:-0.982209 4:-0.690756 5:-0.749565 6:-0.714286 7:0.2 8:-0.314286 
0.03125 1:-1 2:-0.44848 3:-0.985174 4:-1 5:-1 6:-1 7:0.947644 8:-0.947644 
0.03125 1:-0.657143 2:-0.955523 3:-0.721275 4:-0.587238 5:0.08 6:-0.825243 7:-0.745763 8:0.59322 
0.03125 1:-1 2:-0.992587 3:-0.839881 4:-1 5:-1 6:-1 7:-0.911504 8:0.911504 
0.03125 1:-0.904762 2:-0.830986 3:-0.924388 4:-0.84083 5:-0.878992 6:-0.821429 7:0.341176 8:-0.4 
0.03125 1:-1 2:-0.961453 3:-0.925871 4:-1 5:-1 6:-1 7:-0.315789 8:0.315789 
0.03125 1:-0.942857 2:-0.85619 3:-0.850259 4:-0.919227 5:-0.9136 6:-0.942308 7:-0.0348259 8:0.00497512 
0.03125 1:-1 2:-0.979244 3:-0.997035 4:-1 5:-1 6:-1 7:0.75 8:-0.75 
0.03125 1:-0.542857 2:-0.229059 3:-0.989622 4:-0.764279 5:-0.872941 6:0.548387 7:0.887477 8:-0.974592 
0.03125 1:-1 2:-0.995552 3:-1 4:-1 5:-1 6:-1 7:1 8:-1 
0.03125 1:-0.980952 2:-0.958488 3:-0.945145 4:-0.918004 5:-0.90069 6:-0.947368 7:-0.151515 8:0.121212 
0.03125 1:-1 2:-0.577465 3:-1 4:-1 5:-1 6:-1 7:1 8:-1 
0.03125 1:-0.980952 2:-0.945145 3:-0.958488 4:-0.918004 5:-0.924211 6:-0.931034 7:0.121212 8:-0.151515 
0.03125 1:-0.809524 2:-0.479615 3:-0.644181 4:-0.909954 5:-0.920222 6:-0.92 7:0.168053 8:-0.201331 
0.03125 1:0.409524 2:-0.828021 3:-0.919941 4:0.641273 5:0.121684 6:0.15625 7:-0.0491803 8:-0.557377 
0.03125 1:-1 2:-0.962936 3:-1 4:-1 5:-1 6:-1 7:1 8:-1 
0.03125 1:-1 2:-0.982209 3:-0.995552 4:-1 5:-1 6:-1 7:0.6 8:-0.6 
0.03125 1:-0.942857 2:-0.896219 3:-0.99407 4:-0.789152 5:-0.881644 6:-0.142857 7:0.818182 8:-0.896104 
0.03125 1:-0.619048 2:-0.91401 3:-0.3106 4:-0.800672 5:-0.261538 6:-0.917526 7:-0.786372 8:0.712707 
0.03125 1:-0.809524 2:-0.924388 3:-0.506301 4:-0.862646 5:-0.527869 6:-0.941691 7:-0.741117 8:0.690355 
0.03125 1:-1 2:-0.988139 3:-1 4:-1 5:-1 6:-1 7:1 8:-1 
0.03125 1:-0.92381 2:-0.553744 3:-0.664937 4:-0.959233 5:-0.96223 6:-0.965217 7:0.13371 8:-0.148776 
0.03125 1:-0.92381 2:-0.934766 3:-0.976279 4:-0.661765 5:-0.76 6:-0.6 7:0.375 8:-0.5 
0.03125 1:-1 2:-0.857672 3:-0.988139 4:-1 5:-1 6:-1 7:0.846154 8:-0.846154 
0.03125 1:-1 2:-0.991105 3:-1 4:-1 5:-1 6:-1 7:1 8:-1 
0.03125 1:-0.961905 2:-0.99407 3:-0.894737 4:-0.859435 5:-0.04 6:-0.945205 7:-0.896104 8:0.844156 
0.03125 1:-1 2:-0.99407 3:-0.691623 4:-1 5:-1 6:-1 7:-0.962264 8:0.962264 
0.03125 1:-1 2:-0.998517 3:-1 4:-1 5:-1 6:-1 7:1 8:-1 
0.03125 1:-1 2:-0.998517 3:-0.24685 4:-1 5:-1 6:-1 7:-0.996071 8:0.996071 
0.03125 1:-1 2:-0.986657 3:-1 4:-1 5:-1 6:-1 7:1 8:-1 
0.03125 1:-0.92381 2:-0.988139 3:-0.227576 4:-0.959386 5:-0.04 6:-0.984762 7:-0.969981 8:0.954972 
0.03125 1:-0.961905 2:-0.828021 3:-0.602669 4:-0.97196 5:-0.951186 6:-0.985185 7:-0.398964 8:0.388601 
0.03125 1:-1 2:-0.928836 3:-0.915493 4:-1 5:-1 6:-1 7:-0.0857143 8:0.0857143 
0.03125 1:-1 2:-0.773165 3:-0.998517 4:-1 5:-1 6:-1 7:0.987013 8:-0.987013 
0.03125 1:-0.980952 2:-0.891772 3:-0.893254 4:-0.962933 5:-0.961081 6:-0.972603 8:-0.0136986 
0.03125 1:-0.961905 2:-0.77613 3:-0.85619 4:-0.956706 5:-0.962353 6:-0.959596 7:0.208 8:-0.224 
0.03125 1:-1 2:-1 3:-1 4:-1 5:-1 6:-1 7:-1 8:-1 
0.03125 1:-1 2:-0.811712 3:-1 4:-1 5:-1 6:-1 7:1 8:-1 
0.03125 1:-1 2:-0.99407 3:-0.854707 4:-1 5:-1 6:-1 7:-0.921569 8:0.921569 
0.03125 1:-0.942857 2:-0.543365 3:-0.982209 4:-0.949736 5:-0.972219 6:-0.6 7:0.907121 8:-0.925697 
-0.03125 1:-0.790476 2:-0.716827 3:-0.995552 4:-0.709613 5:-0.843168 6:0.571429 7:0.863415 8:-0.970732 
-0.03125 1:-0.961905 2:-0.899185 3:-0.865085 4:-0.932773 5:-0.917714 6:-0.956989 7:-0.15528 8:0.130435 
-0.03125 1:-0.980952 2:-0.945145 3:-0.931801 4:-0.935574 5:-0.924211 6:-0.957447 7:-0.119048 8:0.0952381 
-0.03125 1:-1 2:-0.998517 3:-0.709414 4:-1 5:-1 6:-1 7:-0.989848 8:0.989848 
-0.03125 1:-1 2:-0.949592 3:-0.747961 4:-1 5:-1 6:-1 7:-0.666667 8:0.666667 
-0.03125 1:-0.92381 2:-0.875463 3:-0.890289 4:-0.866376 5:-0.869091 6:-0.897436 7:0.037037 8:-0.0864198 
-0.03125 1:-1 2:-0.90808 3:-0.884359 4:-1 5:-1 6:-1 7:-0.114286 8:0.114286 
-0.03125 1:-1 2:-0.998517 3:-0.945145 4:-1 5:-1 6:-1 7:-0.947368 8:0.947368 
-0.03125 1:-0.961905 2:-0.657524 3:-0.876946 4:-0.965748 5:-0.975279 6:-0.952941 7:0.462025 8:-0.474684 
-0.03125 1:-0.904762 2:-0.955523 3:-0.940697 4:-0.639216 5:-0.588571 6:-0.777778 7:-0.2 8:0.0666667 
-0.03125 1:-0.771429 2:-0.899185 3:-0.848777 4:-0.64318 5:-0.568 6:-0.789474 7:-0.252747 8:0.120879 
-0.03125 1:-0.619048 2:-0.911045 3:-0.573017 4:-0.705882 5:-0.28 6:-0.87013 7:-0.673913 8:0.565217 
-0.03125 1:-1 2:-0.986657 3:-1 4:-1 5:-1 6:-1 7:1 8:-1 
-0.03125 1:-1 2:-0.962936 3:-1 4:-1 5:-1 6:-1 7:1 8:-1 
-0.03125 1:-1 2:-0.989622 3:-0.804299 4:-1 5:-1 6:-1 7:-0.899281 8:0.899281 
-0.03125 1:-0.657143 2:-0.971831 3:-0.836916 4:-0.337335 5:0.401081 6:-0.71875 7:-0.741497 8:0.496599 
-0.03125 1:-0.92381 2:-0.660489 3:-0.988139 4:-0.910178 5:-0.950558 6:-0.333333 7:0.900415 8:-0.93361 
-0.03125 1:-1 2:-0.985174 3:-0.85619 4:-1 5:-1 6:-1 7:-0.813084 8:0.813084 
-0.03125 1:-0.67619 2:-0.919941 3:-0.982209 4:0.108434 5:-0.310423 6:0.172414 7:0.301205 8:-0.710843 
-0.03125 1:-1 2:-0.930319 3:-0.842847 4:-1 5:-1 6:-1 7:-0.385621 8:0.385621 
-0.03125 1:-1 2:-0.863603 3:-0.663454 4:-1 5:-1 6:-1 7:-0.423197 8:0.423197 
-0.03125 1:-0.771429 2:-0.887324 3:-0.973314 4:-0.387347 5:-0.607273 6:-0.2 7:0.433962 8:-0.660377 
-0.03125 1:-0.828571 2:-0.713862 3:-0.955523 4:-0.790061 5:-0.871683 6:-0.538462 7:0.663793 8:-0.741379 
-0.03125 1:-1 2:-0.44848 3:-0.942179 4:-1 5:-1 6:-1 7:0.810219 8:-0.810219 
-0.03125 1:-1 2:-0.782061 3:-1 4:-1 5:-1 6:-1 7:1 8:-1 
-0.03125 1:-0.980952 2:-0.997035 3:-0.943662 4:-0.868006 5:-0.04 6:-0.948718 7:-0.902439 8:0.853659 
-0.03125 1:-0.961905 2:-0.965901 3:-0.916976 4:-0.866376 5:-0.7696 6:-0.931034 7:-0.432099 8:0.382716 
-0.03125 1:-1 2:-0.845812 3:-1 4:-1 5:-1 6:-1 7:1 8:-1 
-0.03125 1:-0.980952 2:-0.943662 3:-0.955523 4:-0.921569 5:-0.926154 6:-0.935484 7:0.101449 8:-0.130435 
-0.03125 1:-0.828571 2:-0.927354 3:-0.599703 4:-0.851506 5:-0.553103 6:-0.935484 7:-0.70122 8:0.646341 
-0.03125 1:-0.885714 2:-0.937732 3:-0.957005 4:-0.578304 5:-0.64 6:-0.657143 7:0.0909091 8:-0.246753 
-0.03125 1:-0.980952 2:-0.912528 3:-0.986657 4:-0.921569 5:-0.952 6:-0.8 7:0.710145 8:-0.73913 
-0.03125 1:-0.752381 2:-0.976279 3:-0.850259 4:-0.458824 5:0.291034 6:-0.77193 7:-0.753846 8:0.553846 
-0.03125 1:0.00952381 2:-0.733136 3:-0.854707 4:-0.133464 5:-0.344893 6:-0.298013 7:0.0876133 8:-0.407855 
-0.03125 1:1 2:-0.349148 3:-0.559674 4:-0.324334 5:-0.444118 6:-0.477612 7:0.0439952 8:-0.293698 
-0.03125 1:-1 2:-0.896219 3:-0.925871 4:-1 5:-1 6:-1 7:0.166667 8:-0.166667 
-0.03125 1:-1 2:-1 3:-0.77613 4:-1 5:-1 6:-1 7:-1 8:1 
-0.03125 1:-1 2:-0.992587 3:-1 4:-1 5:-1 6:-1 7:1 8:-1 
-0.03125 1:-0.695238 2:-0.903632 3:-0.967383 4:-0.159338 5:-0.431111 6:-0.157895 7:0.262136 8:-0.572816 
-0.03125 1:-1 2:-0.942179 3:-0.974796 4:-1 5:-1 6:-1 7:0.392857 8:-0.392857 
-0.03125 1:-1 2:-1 3:-0.979244 4:-1 5:-1 6:-1 7:-1 8:1 
-0.03125 1:-0.92381 2:-0.811712 3:-0.90215 4:-0.890116 5:-0.912061 6:-0.885714 7:0.28934 8:-0.329949 
-0.03125 1:-0.790476 2:-0.48851 3:-0.469236 4:-0.916625 5:-0.911011 6:-0.940379 7:-0.0336134 8:0.00280112 
-0.03125 1:-1 2:-0.804299 3:-1 4:-1 5:-1 6:-1 7:1 8:-1 
-0.03125 1:-1 2:-0.515196 3:-0.998517 4:-1 5:-1 6:-1 7:0.993902 8:-0.993902 
-0.03125 1:-1 2:-1 3:-1 4:-1 5:-1 6:-1 7:-1 8:-1 
-0.03125 1:-1 2:-0.997035 3:-0.765752 4:-1 5:-1 6:-1 7:-0.975 8:0.975 
-0.03125 1:-1 2:-0.854707 3:-0.988139 4:-1 5:-1 6:-1 7:0.849057 8:-0.849057 
-0.03125 1:-0.961905 2:-0.830986 3:-0.982209 4:-0.915441 5:-0.950345 6:-0.714286 7:0.78125 8:-0.8125 
-0.03125 1:-1 2:-0.946627 3:-0.897702 4:-1 5:-1 6:-1 7:-0.314286 8:0.314286 
-0.03125 1:-0.92381 2:-0.660489 3:-0.988139 4:-0.910178 5:-0.950558 6:-0.333333 7:0.900415 8:-0.93361 
-0.03125 1:-0.847619 2:-0.955523 3:-0.982209 4:-0.134118 5:-0.393684 6:-0.2 7:0.2 8:-0.52 
-0.03125 1:-1 2:-0.951075 3:-0.986657 4:-1 5:-1 6:-1 7:0.571429 8:-0.571429 
-0.03125 1:-1 2:-0.985174 3:-0.44848 4:-1 5:-1 6:-1 7:-0.947644 8:0.947644 
-0.03125 1:-0.885714 2:-0.481097 3:-0.968866 4:-0.913871 5:-0.951461 6:-0.555556 7:0.856764 8:-0.888594 
-0.03125 1:-0.885714 2:-0.936249 3:-0.924388 4:-0.675294 5:-0.647347 6:-0.789474 7:-0.14 8:0.02 
-0.03125 1:-0.142857 2:-0.470719 3:-0.986657 4:-0.407471 5:-0.677612 6:0.666667 7:0.737226 8:-0.956204 
-0.03125 1:-0.942857 2:-0.915493 3:-0.973314 4:-0.791855 5:-0.856 6:-0.714286 7:0.461538 8:-0.538462 
-0.03125 1:-0.980952 2:-0.998517 3:-0.997035 4:0.352941 5:0.44 6:-0.333333 7:-0.5 
-0.03125 1:-0.790476 2:-0.911045 3:-0.982209 4:-0.282778 5:-0.553803 6:-0.0434783 7:0.445783 8:-0.710843 
-0.03125 1:-1 2:-0.871016 3:-0.995552 4:-1 5:-1 6:-1 7:0.933333 8:-0.933333 
-0.03125 1:-0.161905 2:-0.881394 3:-0.667902 4:-0.315754 5:0.0219355 6:-0.671642 7:-0.54023 8:0.287356 
-0.03125 1:-0.847619 2:-0.891772 3:-0.991105 4:-0.502366 5:-0.715556 6:0.142857 7:0.678161 8:-0.862069 
-0.03125 1:-0.752381 2:-0.820608 3:-0.979244 4:-0.524642 5:-0.720597 6:-0.037037 7:0.635135 8:-0.810811 
-0.03125 1:-1 2:-0.991105 3:-0.946627 4:-1 5:-1 6:-1 7:-0.714286 8:0.714286 
-0.03125 1:-1 2:-0.968866 3:-0.884359 4:-1 5:-1 6:-1 7:-0.575758 8:0.575758 
-0.03125 1:-0.980952 2:-0.986657 3:-0.916976 4:-0.918004 5:-0.712 6:-0.964912 7:-0.727273 8:0.69697 
-0.03125 1:-0.980952 2:-0.957005 3:-0.985174 4:-0.864706 5:-0.904 6:-0.818182 7:0.45 8:-0.5 
-0.03125 1:-0.942857 2:-0.992587 3:-0.982209 4:-0.188235 5:0.08 6:-0.6 7:-0.5 8:0.2 
-0.03125 1:-0.52381 2:-0.983692 3:-0.752409 4:-0.333527 5:1 6:-0.739583 7:-0.891626 8:0.64532 
-0.03125 1:-1 2:-0.940697 3:-0.952557 4:-1 5:-1 6:-1 7:0.111111 8:-0.111111 
-0.03125 1:-1 2:-0.986657 3:-0.808747 4:-1 5:-1 6:-1 7:-0.869565 8:0.869565 
-0.03125 1:-1 2:-1 3:-1 4:-1 5:-1 6:-1 7:-1 8:-1 
-0.03125 1:-1 2:-0.99407 3:-1 4:-1 5:-1 6:-1 7:1 8:-1 
-0.03125 1:-1 2:-0.786509 3:-0.982209 4:-1 5:-1 6:-1 7:0.846154 8:-0.846154 
-0.03125 1:-1 2:-0.805782 3:-0.86212 4:-1 5:-1 6:-1 7:0.169643 8:-0.169643 
-0.03125 1:-0.466667 2:-0.912528 3:-0.939214 4:0.183824 5:-0.0731034 6:-0.188406 7:-0.078125 8:-0.359375 
-0.03125 1:-0.980952 2:-0.875463 3:-0.871016 4:-0.968536 5:-0.966118 6:-0.977273 7:-0.0232558 8:0.0116279 
-0.03125 1:-1 2:-0.826538 3:-0.884359 4:-1 5:-1 6:-1 7:0.2 8:-0.2 
-0.03125 1:-0.961905 2:-0.988139 3:-0.876946 4:-0.883618 5:-0.424 6:-0.952941 7:-0.827957 8:0.784946 
-0.03125 1:-1 2:-1 3:-0.99407 4:-1 5:-1 6:-1 7:-1 8:1 
-0.03125 1:-0.961905 2:-0.989622 3:-0.645663 4:-0.956357 5:-0.36 6:-0.983402 7:-0.943548 8:0.927419 
-0.03125 1:-0.619048 2:-0.911045 3:-0.573017 4:-0.705882 5:-0.28 6:-0.87013 7:-0.673913 8:0.565217 
-0.03125 1:-1 2:-0.997035 3:-0.897702 4:-1 5:-1 6:-1 7:-0.943662 8:0.943662 
-0.03125 1:-1 2:-0.955523 3:-0.992587 4:-1 5:-1 6:-1 7:0.714286 8:-0.714286 
-0.03125 1:-1 2:-0.986657 3:-0.0244626 4:-1 5:-1 6:-1 7:-0.973013 8:0.973013 
-0.03125 1:-1 2:-0.998517 3:-0.684211 4:-1 5:-1 6:-1 7:-0.990654 8:0.990654 
-0.03125 1:-0.733333 2:-0.930319 3:-0.844329 4:-0.543586 5:-0.339016 6:-0.764706 7:-0.433735 8:0.26506 
-0.03125 1:-1 2:-0.986657 3:-1 4:-1 5:-1 6:-1 7:1 8:-1 
-0.03125 1:-0.980952 2:-0.473684 3:-0.995552 4:-0.984925 5:-0.99191 6:-0.5 7:0.977716 8:-0.983287 
-0.03125 1:-1 2:-0.782061 3:-0.998517 4:-1 5:-1 6:-1 7:0.986486 8:-0.986486 
-0.03125 1:-1 2:-0.614529 3:-1 4:-1 5:-1 6:-1 7:1 8:-1 
-0.03125 1:-0.657143 2:-0.955523 3:-0.721275 4:-0.587238 5:0.08 6:-0.825243 7:-0.745763 8:0.59322 
-0.03125 1:-0.961905 2:-0.989622 3:-0.882876 4:-0.877005 5:-0.36 6:-0.950617 7:-0.840909 8:0.795455 
-0.03125 1:-0.980952 2:-0.872498 3:-0.675315 4:-0.982314 5:-0.966897 6:-0.990909 7:-0.437908 8:0.431373 
-0.03125 1:-1 2:-0.977761 3:-1 4:-1 5:-1 6:-1 7:1 8:-1 
-0.03125 1:-0.92381 2:-0.875463 3:-0.951075 4:-0.821099 5:-0.869091 6:-0.783784 7:0.38843 8:-0.454545 
-0.03125 1:-0.809524 2:-0.295775 3:-0.67828 4:-0.922909 5:-0.940619 6:-0.911894 7:0.353276 8:-0.381766 
-0.03125 1:-0.790476 2:-0.716827 3:-0.995552 4:-0.709613 5:-0.843168 6:0.571429 7:0.863415 8:-0.970732 
-0.03125 1:-1 2:-0.915493 3:-0.992587 4:-1 5:-1 6:-1 7:0.83871 8:-0.83871 
-0.03125 1:-1 2:-0.955523 3:-0.99407 4:-1 5:-1 6:-1 7:0.764706 8:-0.764706 
-0.03125 1:-0.904762 2:-0.808747 3:-0.937732 4:-0.846257 5:-0.892537 6:-0.787234 7:0.465909 8:-0.522727 
-0.03125 1:-1 2:-0.997035 3:-1 4:-1 5:-1 6:-1 7:1 8:-1 
-0.03125 1:-0.561905 2:-0.332839 3:-0.780578 4:-0.799564 5:-0.859958 6:-0.730994 7:0.449275 8:-0.523349 
-0.03125 1:0.390476 2:-0.881394 3:-0.796887 4:0.362272 5:0.374118 6:-0.304762 7:-0.448276 8:-0.0551724 
-0.03125 1:-0.961905 2:0.0126019 3:-0.976279 4:-0.98456 5:-0.991591 6:-0.777778 7:0.948645 8:-0.954351 
-0.03125 1:-0.733333 2:-0.721275 3:-0.976279 4:-0.652455 5:-0.800396 6:-0.0666667 7:0.724771 8:-0.853211 
-0.03125 1:-1 2:-0.366938 3:-0.992587 4:-1 5:-1 6:-1 7:0.976852 8:-0.976852 
-0.03125 1:-1 2:-0.887324 3:-0.538918 4:-1 5:-1 6:-1 7:-0.607235 8:0.607235 
-0.03125 1:-1 2:-0.99407 3:-1 4:-1 5:-1 6:-1 7:1 8:-1 
-0.03125 1:-0.980952 2:-0.998517 3:-0.859155 4:-0.944209 5:0.44 6:-0.979167 7:-0.979381 8:0.958763 
-0.03125 1:-1 2:-1 3:-0.832468 4:-1 5:-1 6:-1 7:-1 8:1 
-0.03125 1:-0.961905 2:-0.962936 3:-0.998517 4:-0.613445 5:-0.786667 6:0.333333 7:0.785714 8:-0.928571 
-0.03125 1:-0.942857 2:-0.982209 3:-0.543365 4:-0.949736 5:-0.424 6:-0.980707 7:-0.925697 8:0.907121 
-0.03125 1:-0.980952 2:-0.663454 3:-0.943662 4:-0.979655 5:-0.987368 6:-0.948718 7:0.706767 8:-0.714286 
-0.03125 1:-0.92381 2:-0.980726 3:-0.623425 4:-0.920122 5:-0.322353 6:-0.968992 7:-0.904059 8:0.874539 
-0.03125 1:-0.980952 2:-0.970348 3:-0.223128 4:-0.99007 5:-0.862857 6:-0.99619 7:-0.926606 8:0.922936 
-0.03125 1:-0.942857 2:-0.66642 3:-0.844329 4:-0.951245 5:-0.962105 6:-0.944444 7:0.351351 8:-0.369369 
-0.03125 1:-1 2:-0.911045 3:-1 4:-1 5:-1 6:-1 7:1 8:-1 
-0.03125 1:-1 2:-0.782061 3:-0.903632 4:-1 5:-1 6:-1 7:0.386792 8:-0.386792 
-0.03125 1:-1 2:-0.614529 3:-0.909563 4:-1 5:-1 6:-1 7:0.619938 8:-0.619938 
-0.03125 1:-1 2:-0.71831 3:-0.997035 4:-1 5:-1 6:-1 7:0.979167 8:-0.979167 
-0.03125 1:-0.92381 2:-0.928836 3:0.00963677 4:-0.970468 5:-0.778462 6:-0.988321 7:-0.869031 8:0.858117 
-0.03125 1:-0.92381 2:-0.922906 3:-0.961453 4:-0.736011 5:-0.794286 6:-0.733333 7:0.268293 8:-0.365854 
-0.03125 1:-0.961905 2:-0.989622 3:-0.961453 4:-0.690756 5:-0.36 6:-0.857143 7:-0.6 8:0.485714 
-0.03125 1:-1 2:-1 3:-1 4:-1 5:-1 6:-1 7:-1 8:-1 
-0.03125 1:-0.828571 2:-0.830986 3:-0.961453 4:-0.673115 5:-0.789268 6:-0.485714 7:0.530201 8:-0.651007 
-0.03125 1:-1 2:-0.830986 3:-0.949592 4:-1 5:-1 6:-1 7:0.540541 8:-0.540541 
-0.03125 1:-1 2:-0.997035 3:-1 4:-1 5:-1 6:-1 7:1 8:-1 
