svm_type c_svc
kernel_type rbf
gamma 8
nr_class 2
total_sv 184
rho -0.572399
label 1 -1
nr_sv 93 91
SV
1414.519877594678 1:-1 2:-0.461765 3:-1 4:-1 5:-1 6:-1 7:1 8:-1 
8192 1:-1 2:-0.976471 3:-1 4:-1 5:-1 6:-1 7:1 8:-1 
4.254776478866584 1:-0.219048 2:-0.773529 3:-0.613047 4:-0.478368 5:-0.305085 6:-0.728477 7:-0.593668 8:0.377309 
4623.05054054278 1:-1 2:-0.55 3:-0.998517 4:-1 5:-1 6:-1 7:0.987013 8:-0.987013 
4.465517239767014 1:-0.980952 2:-0.994118 3:-0.857672 4:-0.951294 5:-0.333333 6:-0.979381 7:-0.959596 8:0.939394 
64.01318202884981 1:-0.92381 2:-0.870588 3:-0.976279 4:-0.69863 5:-0.833333 6:-0.6 7:0.375 8:-0.5 
8192 1:-1 2:-0.744118 3:-0.995552 4:-1 5:-1 6:-1 7:0.933333 8:-0.933333 
3128.303910501034 1:-1 2:-0.852941 3:-0.979244 4:-1 5:-1 6:-1 7:0.5625 8:-0.5625 
3.218054971196728 1:-0.733333 2:-0.644118 3:-0.976279 4:-0.552935 5:-0.792593 6:-0.0666667 7:0.602649 8:-0.788079 
94.13257135530283 1:-0.92381 2:-0.676471 3:-0.955523 4:-0.866058 5:-0.929825 6:-0.764706 7:0.527778 8:-0.583333 
397.2046087450303 1:-0.980952 2:-0.817647 3:-0.5404 4:-0.987073 5:-0.968254 6:-0.993569 7:-0.66756 8:0.662198 
8192 1:-1 2:-1 3:-0.971831 4:-1 5:-1 6:-1 7:-1 8:1 
11.16639659858462 1:-0.657143 2:-0.911765 3:-0.721275 4:-0.632227 5:-0.25 6:-0.825243 7:-0.745763 8:0.59322 
8192 1:-1 2:-0.958824 3:-1 4:-1 5:-1 6:-1 7:1 8:-1 
2120.843583161682 1:-1 2:-0.964706 3:-0.995552 4:-1 5:-1 6:-1 7:0.6 8:-0.6 
731.0668602705947 1:-1 2:-0.717647 3:-0.897702 4:-1 5:-1 6:-1 7:0.163636 8:-0.163636 
1831.980369709216 1:-1 2:-0.991176 3:-0.998517 4:-1 5:-1 6:-1 7:0.5 8:-0.5 
556.7477402110097 1:-0.961905 2:-0.814706 3:-0.970348 4:-0.886543 5:-0.938462 6:-0.818182 7:0.482353 8:-0.529412 
0.2680131165444862 1:-0.485714 2:-0.0176471 3:-0.829503 4:-0.726488 5:-0.850416 6:-0.619718 7:0.403361 8:-0.516807 
908.670257305375 1:-1 2:-0.229412 3:-1 4:-1 5:-1 6:-1 7:1 8:-1 
8192 1:-1 2:-0.961765 3:-0.94811 4:-1 5:-1 6:-1 7:-0.458333 8:0.458333 
4951.736054024605 1:-1 2:-0.970588 3:-0.767235 4:-1 5:-1 6:-1 7:-0.88024 8:0.88024 
19.15483298543334 1:-0.980952 2:-0.976471 3:-0.905115 4:-0.933946 5:-0.777778 6:-0.969231 7:-0.780822 8:0.753425 
8192 1:-1 2:-0.994118 3:-0.95997 4:-1 5:-1 6:-1 7:-0.862069 8:0.862069 
2.868111614462649 1:-0.714286 2:-0.838235 3:-0.903632 4:-0.464231 5:-0.571429 6:-0.625 7:-0.185185 8:-0.037037 
1694.147288417943 1:-1 2:-0.811765 3:-0.99407 4:-1 5:-1 6:-1 7:0.882353 8:-0.882353 
4939.990760418678 1:-1 2:-0.988235 3:-0.691623 4:-1 5:-1 6:-1 7:-0.962264 8:0.962264 
0.4276378222664271 1:-0.980952 2:-1 3:-0.872498 4:-0.944576 5:1 6:-0.977011 7:-1 8:0.977011 
8192 1:-1 2:-0.991176 3:-1 4:-1 5:-1 6:-1 7:1 8:-1 
7.950325938296256 1:-0.809524 2:-0.667647 3:-0.949592 4:-0.692871 5:-0.837398 6:-0.545455 7:0.43949 8:-0.566879 
1921.453287406357 1:-1 2:-0.626471 3:-1 4:-1 5:-1 6:-1 7:1 8:-1 
0.6452314681743498 1:-1 2:-1 3:-1 4:-1 5:-1 6:-1 7:-1 8:-1 
8192 1:-1 2:-0.958824 3:-0.814678 4:-1 5:-1 6:-1 7:-0.798561 8:0.798561 
8192 1:-1 2:-1 3:-0.99407 4:-1 5:-1 6:-1 7:-1 8:1 
1923.658194298472 1:-1 2:-0.973529 3:-0.415864 4:-1 5:-1 6:-1 7:-0.955335 8:0.955335 
0.8855896960405265 1:-0.714286 2:-0.852941 3:-0.928836 4:-0.359922 5:-0.538462 6:-0.52381 7:-0.115044 8:-0.150442 
1731.389687143436 1:-1 2:-0.823529 3:-0.799852 4:-1 5:-1 6:-1 7:-0.384615 8:0.384615 
0.2393552678922953 1:-0.980952 2:-0.95 3:-1 4:-0.732116 5:-0.888889 6:1 7:0.888889 8:-1 
1187.393247211744 1:-0.980952 2:-0.785294 3:-0.893254 4:-0.966973 5:-0.972973 6:-0.972603 8:-0.0136986 
359.4230674731385 1:-0.961905 2:-0.867647 3:-0.909563 4:-0.910705 5:-0.914894 6:-0.936508 7:-0.166667 8:0.12963 
1.076826272934208 1:-0.980952 2:-0.997059 3:-0.995552 4:-0.0356164 6:-0.5 7:-0.6 8:0.2 
0.16110741871623 1:-0.409524 2:-0.95 3:-0.873981 4:0.123906 5:0.291667 6:-0.465517 7:-0.744361 8:0.278195 
3.050543561485754 1:-0.904762 2:0.411765 3:-0.976279 4:-0.951877 5:-0.979381 6:-0.52381 7:0.916168 8:-0.936128 
11.630808017618 1:-0.980952 2:0.344118 3:-0.90808 4:-0.990727 5:-0.995633 6:-0.968254 7:0.757692 8:-0.761538 
8192 1:-1 2:-0.794118 3:-1 4:-1 5:-1 6:-1 7:1 8:-1 
1.479001259737179 1:-0.885714 2:-0.985294 3:-0.906597 4:-0.609034 5:0.0909091 6:-0.826087 7:-0.864865 8:0.702703 
750.0884920350752 1:-1 2:-0.982353 3:-0.989622 4:-1 5:-1 6:-1 7:-0.0769231 8:0.0769231 
0.778384529990948 1:-1 2:0.935294 3:-0.998517 4:-1 5:-1 6:-1 7:0.996965 8:-0.996965 
0.4112711434158285 1:0.409524 2:-0.658824 3:-0.919941 4:0.462385 5:-0.221053 6:0.15625 7:-0.0491803 8:-0.557377 
8191.782387311038 1:-1 2:-1 3:-1 4:-1 5:-1 6:-1 7:-1 8:-1 
1.81558407043535 1:0.0857143 2:-0.573529 3:-0.871016 4:-0.0489643 5:-0.435644 6:-0.208333 7:0.00346021 8:-0.397924 
7796.845103261656 1:-1 2:-1 3:-0.945145 4:-1 5:-1 6:-1 7:-1 8:1 
264.6834284900253 1:-1 2:-0.444118 3:-0.979244 4:-1 5:-1 6:-1 7:0.862069 8:-0.862069 
5518.789712038168 1:-1 2:-0.932353 3:-0.779096 4:-1 5:-1 6:-1 7:-0.732558 8:0.732558 
27.78267170878078 1:-0.942857 2:-0.414706 3:-0.879911 4:-0.948884 5:-0.970297 6:-0.928571 7:0.40636 8:-0.427562 
8192 1:-1 2:-0.664706 3:-1 4:-1 5:-1 6:-1 7:1 8:-1 
27.91451257645842 1:-0.885714 2:-0.902941 3:-0.866568 4:-0.775725 5:-0.692308 6:-0.875 7:-0.488372 8:0.395349 
1705.381845318755 1:-1 2:-0.761765 3:-0.992587 4:-1 5:-1 6:-1 7:0.883721 8:-0.883721 
1.327712698525204 1:-0.92381 2:-0.114706 3:-0.664937 4:-0.963677 5:-0.97377 6:-0.965217 7:0.13371 8:-0.148776 
2758.052812622914 1:-1 2:-0.985294 3:-0.957005 4:-1 5:-1 6:-1 7:-0.705882 8:0.705882 
5.02648009187543 1:-0.447619 2:-0.902941 3:-0.750927 4:-0.392019 5:-0.0645161 6:-0.705584 7:-0.713043 8:0.46087 
0.4278215147427413 1:-0.67619 2:-0.938235 3:-0.988139 4:0.782013 5:-0.105263 6:0.36 7:-0.0869565 8:-0.652174 
0.6283235644322371 1:-0.961905 2:-0.117647 3:-0.997035 4:-0.968277 5:-0.986755 7:0.973684 8:-0.986842 
8192 1:-1 2:-0.908824 3:-0.955523 4:-1 5:-1 6:-1 7:0.0163934 8:-0.0163934 
8192 1:-1 2:-0.997059 3:-1 4:-1 5:-1 6:-1 7:1 8:-1 
8192 1:-1 2:-1 3:-0.853225 4:-1 5:-1 6:-1 7:-1 8:1 
0.6916064235767071 1:-0.352381 2:0.835294 3:-0.796887 4:-0.79378 5:-0.896657 6:-0.602339 7:0.569811 8:-0.655346 
1018.14240857514 1:-1 2:-0.794118 3:-0.979244 4:-1 5:-1 6:-1 7:0.666667 8:-0.666667 
305.6141574871681 1:-1 2:-0.888235 3:-0.814678 4:-1 5:-1 6:-1 7:-0.533742 8:0.533742 
5040.541887419147 1:-1 2:-0.985294 3:-0.839881 4:-1 5:-1 6:-1 7:-0.911504 8:0.911504 
8192 1:-1 2:-0.923529 3:-0.925871 4:-1 5:-1 6:-1 7:-0.315789 8:0.315789 
0.4473122480157333 1:-0.542857 2:0.529412 3:-0.989622 4:-0.789971 5:-0.911765 6:0.548387 7:0.887477 8:-0.974592 
586.290287600237 1:-0.961905 2:-0.764706 3:-0.813195 4:-0.953635 5:-0.95122 6:-0.96875 7:-0.230769 8:0.211538 
6.965594827264024 1:-0.828571 2:-0.885294 3:-0.899185 4:-0.625886 5:-0.625 6:-0.766234 7:-0.327586 8:0.172414 
3077.330923080921 1:-0.980952 2:-0.891176 3:-0.958488 4:-0.926941 5:-0.947368 6:-0.931034 7:0.121212 8:-0.151515 
10.27417434742175 1:-0.67619 2:-0.470588 3:-0.647146 4:-0.811557 5:-0.827411 6:-0.866667 7:-0.172414 8:0.0942529 
0.500424483673739 1:-0.485714 2:-0.938235 3:-0.915493 4:0.239922 5:0.125 6:-0.357143 7:-0.6 8:0.0857143 
8192 1:-1 2:-0.973529 3:-1 4:-1 5:-1 6:-1 7:1 8:-1 
63.14998448500915 1:-0.942857 2:-0.723529 3:-0.915493 4:-0.906067 5:-0.938144 6:-0.9 7:0.220779 8:-0.25974 
1543.868867592584 1:-1 2:-0.841176 3:-0.992587 4:-1 5:-1 6:-1 7:0.830508 8:-0.830508 
33.484261721224 1:-0.942857 2:-0.414706 3:-0.951075 4:-0.938444 5:-0.970297 6:-0.833333 7:0.693617 8:-0.719149 
0.01143802450166507 1:-0.942857 2:-0.0941176 3:-0.982209 4:-0.955214 5:-0.980707 6:-0.6 7:0.907121 8:-0.925697 
8192 1:-1 2:-0.997059 3:-1 4:-1 5:-1 6:-1 7:1 8:-1 
84.91831394617995 1:-0.980952 2:-0.95 3:-0.980726 4:-0.844454 5:-0.888889 6:-0.857143 7:0.0967742 8:-0.16129 
8192 1:-1 2:-0.894118 3:-0.875463 4:-1 5:-1 6:-1 7:-0.4 8:0.4 
8192 1:-1 2:-0.926471 3:-1 4:-1 5:-1 6:-1 7:1 8:-1 
6.614464834590829 1:-0.980952 2:-0.891176 3:-0.995552 4:-0.882392 5:-0.947368 6:-0.5 7:0.804878 8:-0.853659 
0.4516289847765698 1:-0.92381 2:-0.982353 3:-0.839881 4:-0.836545 5:-0.2 6:-0.928571 7:-0.898305 8:0.830508 
0.4277541104844756 1:-1 2:-0.658824 3:1 4:-1 5:-1 6:-1 7:-0.841638 8:0.841638 
0.4274762204376988 1:0.390476 2:-0.905882 3:-0.894737 4:1 5:0.390476 6:0.0138889 7:-0.636364 8:-0.193182 
6058.580823199373 1:-1 2:-0.908824 3:-0.961453 4:-1 5:-1 6:-1 7:0.0877193 8:-0.0877193 
182.7428971779165 1:-0.942857 2:-0.714706 3:-0.850259 4:-0.928031 5:-0.94 6:-0.942308 7:-0.0348259 8:0.00497512 
0.3946991920464872 1:-0.961905 2:-0.752941 3:-1 4:-0.887862 5:-0.953488 6:1 7:0.953488 8:-1 
-10.96575049209266 1:-0.580952 2:-0.923529 3:-0.733136 4:-0.534727 5:-0.0833333 6:-0.782178 7:-0.77193 8:0.578947 
-2931.969636785052 1:-1 2:-0.961765 3:-0.99407 4:-1 5:-1 6:-1 7:0.529412 8:-0.529412 
-0.3859865635740602 1:-0.847619 2:0.702941 3:-0.807265 4:-0.946199 5:-0.972743 6:-0.884058 7:0.615063 8:-0.637378 
-17.8060882876665 1:-0.885714 2:-0.876471 3:-0.957005 4:-0.624266 5:-0.75 6:-0.657143 7:0.0909091 8:-0.246753 
-3426.549330843672 1:-1 2:-0.911765 3:-0.95404 4:-1 5:-1 6:-1 7:-0.0163934 8:0.0163934 
-18.19617587293137 1:-0.828571 2:-0.432353 3:-0.955523 4:-0.812943 5:-0.910891 6:-0.538462 7:0.663793 8:-0.741379 
-1.258676026066151 1:0.333333 2:-0.317647 3:-0.752409 4:-0.280311 5:-0.536424 6:-0.409283 7:-0.010661 8:-0.287846 
-236.5965713304779 1:-1 2:-0.908824 3:-0.925871 4:-1 5:-1 6:-1 7:-0.234568 8:0.234568 
-1690.776584020688 1:-1 2:-1 3:-0.77613 4:-1 5:-1 6:-1 7:-1 8:1 
-0.8841530063491034 1:-0.752381 2:-0.952941 3:-0.850259 4:-0.517808 5:-0.103448 6:-0.77193 7:-0.753846 8:0.553846 
-8192 1:-1 2:-0.988235 3:-1 4:-1 5:-1 6:-1 7:1 8:-1 
-8192 1:-1 2:-0.926471 3:-1 4:-1 5:-1 6:-1 7:1 8:-1 
-3398.355379208381 1:-1 2:-0.902941 3:-0.986657 4:-1 5:-1 6:-1 7:0.571429 8:-0.571429 
-1.571593623771297 1:1 2:0.291176 3:-0.559674 4:-0.397977 5:-0.613971 6:-0.477612 7:0.0439952 8:-0.293698 
-2880.213185088291 1:-1 2:-0.744118 3:-0.995552 4:-1 5:-1 6:-1 7:0.933333 8:-0.933333 
-967.1128877566593 1:-1 2:-0.967647 3:-0.986657 4:-1 5:-1 6:-1 7:0.1 8:-0.1 
-5.429109075621255 1:-0.771429 2:-0.776471 3:-0.973314 4:-0.454123 5:-0.727273 6:-0.2 7:0.433962 8:-0.660377 
-1755.258546764647 1:-1 2:-0.988235 3:-0.974796 4:-1 5:-1 6:-1 7:-0.619048 8:0.619048 
-8192 1:-1 2:-0.994118 3:-0.765752 4:-1 5:-1 6:-1 7:-0.975 8:0.975 
-489.9925286658975 1:-1 2:-0.688235 3:-0.967383 4:-1 5:-1 6:-1 7:0.65625 8:-0.65625 
-8192 1:-1 2:-0.911765 3:-0.95997 4:-1 5:-1 6:-1 7:0.0526316 8:-0.0526316 
-3569.35901596597 1:-1 2:-1 3:-0.99407 4:-1 5:-1 6:-1 7:-1 8:1 
-5565.205993243733 1:-1 2:-0.861765 3:-0.842847 4:-1 5:-1 6:-1 7:-0.385621 8:0.385621 
-132.4063975731865 1:-1 2:-0.847059 3:-0.844329 4:-1 5:-1 6:-1 7:-0.33758 8:0.33758 
-1.366266962112772 1:-0.580952 2:-0.855882 3:-0.819125 4:-0.450351 5:-0.380282 6:-0.694444 7:-0.492228 8:0.264249 
-3673.791635140412 1:-0.980952 2:-0.888235 3:-0.955523 4:-0.930117 5:-0.948718 6:-0.935484 7:0.101449 8:-0.130435 
-7342.182852060472 1:-1 2:-0.985294 3:-1 4:-1 5:-1 6:-1 7:1 8:-1 
-6599.133802551651 1:-1 2:-0.938235 3:-1 4:-1 5:-1 6:-1 7:1 8:-1 
-264.0275407705319 1:-1 2:-0.947059 3:-0.980726 4:-1 5:-1 6:-1 7:0.16129 8:-0.16129 
-1.987195153498632 1:-0.980952 2:-0.997059 3:-0.997035 4:0.205479 6:-0.333333 7:-0.5 
-8192 1:-1 2:-0.926471 3:-0.91401 4:-1 5:-1 6:-1 7:-0.39759 8:0.39759 
-4.228031390466618 1:-0.980952 2:-0.529412 3:-0.194959 4:-0.993151 5:-0.987578 6:-0.996324 7:-0.545455 8:0.542614 
-3394.21718876719 1:-1 2:-0.894118 3:-0.897702 4:-1 5:-1 6:-1 7:-0.314286 8:0.314286 
-8192 1:-1 2:-1 3:-0.95404 4:-1 5:-1 6:-1 7:-1 8:1 
-11.08323319287746 1:-0.961905 2:-0.932353 3:-0.916976 4:-0.88094 5:-0.84 6:-0.931034 7:-0.432099 8:0.382716 
-8192 1:-1 2:-0.994118 3:-1 4:-1 5:-1 6:-1 7:1 8:-1 
-5960.613932391735 1:-1 2:-0.885294 3:-1 4:-1 5:-1 6:-1 7:1 8:-1 
-334.454085405423 1:-0.942857 2:-0.832353 3:-0.973314 4:-0.814542 5:-0.9 6:-0.714286 7:0.461538 8:-0.538462 
-2520.541574930573 1:-1 2:-0.952941 3:-0.949592 4:-1 5:-1 6:-1 7:-0.36 8:0.36 
-276.393654130939 1:-1 2:-0.879412 3:-0.755374 4:-1 5:-1 6:-1 7:-0.601942 8:0.601942 
-296.1699467868267 1:-1 2:-0.655882 3:-0.830986 4:-1 5:-1 6:-1 7:0.012987 8:-0.012987 
-2.911557834076367 1:-0.980952 2:-0.994118 3:-0.943662 4:-0.882392 5:-0.333333 6:-0.948718 7:-0.902439 8:0.853659 
-8192 1:-1 2:-1 3:-1 4:-1 5:-1 6:-1 7:-1 8:-1 
-8192 1:-1 2:-0.973529 3:-0.878428 4:-1 5:-1 6:-1 7:-0.802198 8:0.802198 
-1.406180712341142 1:-0.67619 2:-0.841176 3:-0.982209 4:-0.0123783 5:-0.521127 6:0.172414 7:0.301205 8:-0.710843 
-9.256939229070404 1:-0.828571 2:-0.855882 3:-0.599703 4:-0.867691 5:-0.689655 6:-0.935484 7:-0.70122 8:0.646341 
-32.67301944770792 1:-1 2:-0.994118 3:-0.998517 4:-1 5:-1 6:-1 7:0.333333 8:-0.333333 
-1589.020220154132 1:-1 2:-0.9 3:-0.747961 4:-1 5:-1 6:-1 7:-0.666667 8:0.666667 
-569.6884195444252 1:-0.980952 2:-0.729412 3:-0.961453 4:-0.95948 5:-0.978495 6:-0.925926 7:0.546218 8:-0.563025 
-1690.007162946645 1:-1 2:-0.858824 3:-0.928836 4:-1 5:-1 6:-1 
-95.3659223220383 1:-0.980952 2:-0.911765 3:-0.863603 4:-0.960797 5:-0.935484 6:-0.978495 7:-0.512195 8:0.495935 
-204.504679461318 1:-1 2:-0.0382353 3:-0.998517 4:-1 5:-1 6:-1 7:0.993902 8:-0.993902 
-4.731507167094724 1:-0.828571 2:0.641176 3:-0.882876 4:-0.932822 5:-0.968254 6:-0.795455 7:0.727554 8:-0.755418 
-4830.474916062184 1:-1 2:-0.961765 3:-0.945145 4:-1 5:-1 6:-1 7:-0.48 8:0.48 
-63.25818171420206 1:-0.92381 2:-0.626471 3:-0.90215 4:-0.902093 5:-0.938931 6:-0.885714 7:0.28934 8:-0.329949 
-6875.616856136512 1:-1 2:-0.938235 3:-0.755374 4:-1 5:-1 6:-1 7:-0.774194 8:0.774194 
-2520.562159481484 1:-1 2:-0.970588 3:-0.44848 4:-1 5:-1 6:-1 7:-0.947644 8:0.947644 
-548.368381541348 1:-1 2:-0.9 3:-0.997035 4:-1 5:-1 6:-1 7:0.888889 8:-0.888889 
-350.587453214496 1:-1 2:-0.632353 3:-0.992587 4:-1 5:-1 6:-1 7:0.923077 8:-0.923077 
-8192 1:-1 2:-1 3:-0.979244 4:-1 5:-1 6:-1 7:-1 8:1 
-1.500914703074029 1:-0.67619 2:0.55 3:-0.489993 4:-0.907689 5:-0.9375 6:-0.905817 7:0.186937 8:-0.225225 
-8192 1:-1 2:-0.694118 3:-1 4:-1 5:-1 6:-1 7:1 8:-1 
-1.574411300757744 1:-0.142857 2:0.05 3:-0.986657 4:-0.472053 5:-0.776119 6:0.666667 7:0.737226 8:-0.956204 
-8192 1:-1 2:-1 3:-0.946627 4:-1 5:-1 6:-1 7:-1 8:1 
-8192 1:-1 2:-0.979412 3:-0.804299 4:-1 5:-1 6:-1 7:-0.899281 8:0.899281 
-95.63334491975809 1:-0.885714 2:-0.673529 3:-0.461824 4:-0.939726 5:-0.897436 6:-0.96748 7:-0.5375 8:0.5125 
-8192 1:-1 2:-0.761765 3:-0.995552 4:-1 5:-1 6:-1 7:0.928571 8:-0.928571 
-1.633190504277216 1:-0.790476 2:-0.438235 3:-0.995552 4:-0.741263 5:-0.891089 6:0.571429 7:0.863415 8:-0.970732 
-8192 1:-1 2:-0.991176 3:-1 4:-1 5:-1 6:-1 7:1 8:-1 
-8192 1:-1 2:-0.611765 3:-1 4:-1 5:-1 6:-1 7:1 8:-1 
-1343.076905322948 1:-1 2:-0.973529 3:-0.977761 4:-1 5:-1 6:-1 7:-0.25 8:0.25 
-2017.965480083723 1:-1 2:-0.970588 3:-0.85619 4:-1 5:-1 6:-1 7:-0.813084 8:0.813084 
-5428.24604836551 1:-1 2:-0.997059 3:-0.980726 4:-1 5:-1 6:-1 7:-0.857143 8:0.857143 
-190.4822013014535 1:-0.92381 2:-0.702941 3:-0.875463 4:-0.897949 5:-0.92381 6:-0.909091 7:0.0687831 8:-0.111111 
-48.26291937066836 1:-0.980952 2:-0.961765 3:-0.973314 4:-0.849315 5:-0.857143 6:-0.894737 7:-0.1875 8:0.125 
-0.5666537315850443 1:-0.904762 2:1 3:-0.86212 4:-0.969011 5:-0.985401 6:-0.897959 7:0.748072 8:-0.760925 
-2.258831067547798 1:0.00952381 2:-0.470588 3:-0.854707 4:-0.22791 5:-0.545064 6:-0.298013 7:0.0876133 8:-0.407855 
-2356.363260851616 1:-1 2:-0.85 3:-0.989622 4:-1 5:-1 6:-1 7:0.758621 8:-0.758621 
-8192 1:-1 2:-0.997059 3:-1 4:-1 5:-1 6:-1 7:1 8:-1 
-18.25265242295247 1:-0.961905 2:-0.970588 3:-0.873981 4:-0.900579 5:-0.666667 6:-0.954023 7:-0.793814 8:0.752577 
-996.798174732846 1:-1 2:-0.823529 3:-1 4:-1 5:-1 6:-1 7:1 8:-1 
-2667.246827362691 1:-1 2:-0.382353 3:-0.998517 4:-1 5:-1 6:-1 7:0.990521 8:-0.990521 
-1399.318771093825 1:-1 2:-0.794118 3:-0.925871 4:-1 5:-1 6:-1 7:0.166667 8:-0.166667 
-1.655002594102807 1:-0.885714 2:0.0294118 3:-0.968866 4:-0.923259 5:-0.966292 6:-0.555556 7:0.856764 8:-0.888594 
-782.069817462389 1:-0.942857 2:-0.779412 3:-0.842847 4:-0.921382 5:-0.923077 6:-0.944954 7:-0.184783 8:0.152174 
-5.330005244698255 1:-0.161905 2:-0.764706 3:-0.667902 4:-0.390332 5:-0.290323 6:-0.671642 7:-0.54023 8:0.287356 
-1.654502176263669 1:-0.142857 2:-0.0852941 3:-0.300222 4:-0.737939 5:-0.747191 6:-0.825919 7:-0.248792 8:0.140097 
-13.20433643983698 1:-0.771429 2:-0.894118 3:-0.823573 4:-0.653515 5:-0.5 6:-0.816794 7:-0.568862 8:0.42515 
-178.4784283685914 1:-0.980952 2:-0.852941 3:-0.974796 4:-0.929089 5:-0.960784 6:-0.888889 7:0.470588 8:-0.5 
-1387.738745485884 1:-1 2:-0.632353 3:-0.992587 4:-1 5:-1 6:-1 7:0.923077 8:-0.923077 
-2.04563480047541 1:-0.790476 2:0.0147059 3:-0.469236 4:-0.925713 5:-0.938202 6:-0.940379 7:-0.0336134 8:0.00280112 
