svm_type c_svc
kernel_type rbf
gamma 8
nr_class 2
total_sv 279
rho 0.613161
label 1 -1
nr_sv 112 167
SV
32768 1:-1 2:-0.719792 3:-0.979244 4:-1 5:-1 6:-1 7:0.862069 8:-0.862069 
32768 1:-1 2:-0.979244 3:-1 4:-1 5:-1 6:-1 7:1 8:-1 
2524.979449584721 1:-0.961905 2:-0.906597 3:-0.970348 4:-0.872664 5:-0.911385 6:-0.818182 7:0.482353 8:-0.529412 
32768 1:-1 2:-0.995552 3:-0.905115 4:-1 5:-1 6:-1 7:-0.910448 8:0.910448 
32768 1:-1 2:-0.773165 3:-0.998517 4:-1 5:-1 6:-1 7:0.987013 8:-0.987013 
32768 1:-1 2:-0.955523 3:-0.842847 4:-1 5:-1 6:-1 7:-0.558824 8:0.558824 
1620.320842753566 1:-0.980952 2:-0.5404 3:-0.90808 4:-0.985491 5:-0.99074 6:-0.968254 7:0.662198 8:-0.66756 
32768 1:-1 2:-0.995552 3:-0.998517 4:-1 5:-1 6:-1 7:0.5 8:-0.5 
16.24288848193622 1:-0.980952 2:-0.322461 3:-0.90808 4:-0.989593 5:-0.993712 6:-0.968254 7:0.757692 8:-0.761538 
32768 1:-1 2:-0.995552 3:-1 4:-1 5:-1 6:-1 7:1 8:-1 
23.59489844152306 1:-0.92381 2:-0.922906 3:-0.99407 4:-0.639216 5:-0.794286 7:0.733333 8:-0.866667 
32768 1:-1 2:-0.95404 3:-0.961453 4:-1 5:-1 6:-1 7:0.0877193 8:-0.0877193 
28.89867677838171 1:-0.904762 2:-0.288362 3:-0.976279 4:-0.94599 5:-0.970309 6:-0.52381 7:0.916168 8:-0.936128 
32768 1:-1 2:-0.799852 3:-0.911045 4:-1 5:-1 6:-1 7:0.384615 8:-0.384615 
32768 1:-1 2:-0.911045 3:-0.983692 4:-1 5:-1 6:-1 7:0.690141 8:-0.690141 
1.228502905359673 1:-0.866667 2:-0.99407 3:-0.81616 4:-0.71939 5:0.832727 6:-0.89313 7:-0.940741 8:0.837037 
1.226506791822778 1:-0.409524 2:-0.974796 3:-0.873981 4:0.261389 5:0.86 6:-0.465517 7:-0.744361 8:0.278195 
32768 1:-1 2:-0.896219 3:-1 4:-1 5:-1 6:-1 7:1 8:-1 
32768 1:-1 2:-0.957005 3:-0.750927 4:-1 5:-1 6:-1 7:-0.705584 8:0.705584 
98.75812034619806 1:-0.980952 2:-0.897702 3:-0.756857 4:-0.976873 5:-0.958857 6:-0.987879 7:-0.410256 8:0.401709 
85.32082743785702 1:-0.809524 2:-0.832468 3:-0.949592 4:-0.655302 5:-0.765854 6:-0.545455 7:0.43949 8:-0.566879 
3.144332633470948 1:-0.961905 2:-0.555226 3:-0.997035 4:-0.964396 5:-0.980927 7:0.973684 8:-0.986842 
29213.82283378122 1:-1 2:-0.857672 3:-0.897702 4:-1 5:-1 6:-1 7:0.163636 8:-0.163636 
32768 1:-1 2:-0.871016 3:-0.995552 4:-1 5:-1 6:-1 7:0.933333 8:-0.933333 
54.56372074197133 1:-0.980952 2:-0.988139 3:-0.905115 4:-0.925866 5:-0.68 6:-0.969231 7:-0.780822 8:0.753425 
32768 1:-1 2:-0.919941 3:-0.992587 4:-1 5:-1 6:-1 7:0.830508 8:-0.830508 
32768 1:-1 2:-0.728688 3:-1 4:-1 5:-1 6:-1 7:1 8:-1 
0.0647385184669044 1:-0.485714 2:-0.504818 3:-0.829503 4:-0.69303 5:-0.784598 6:-0.619718 7:0.403361 8:-0.516807 
32768 1:-1 2:-0.830986 3:-1 4:-1 5:-1 6:-1 7:1 8:-1 
36.73007481417 1:-1 2:-0.99407 3:0.12083 4:-1 5:-1 6:-1 7:-0.989474 8:0.989474 
2.431337445922205 1:0.0857143 2:-0.785026 3:-0.871016 4:0.0673723 5:-0.187327 6:-0.208333 7:0.00346021 8:-0.397924 
6.292951043008361 1:-0.961905 2:-0.983692 3:-0.555226 4:-0.96542 5:-0.556923 6:-0.986755 7:-0.929712 8:0.916933 
32768 1:-1 2:-0.979244 3:-0.814678 4:-1 5:-1 6:-1 7:-0.798561 8:0.798561 
156.9917186815186 1:-0.733333 2:-0.820608 3:-0.976279 4:-0.498247 5:-0.701333 6:-0.0666667 7:0.602649 8:-0.788079 
2108.768235846495 1:-1 2:-0.614529 3:-0.844329 4:-1 5:-1 6:-1 7:0.424658 8:-0.424658 
32768 1:-1 2:-1 3:-0.99407 4:-1 5:-1 6:-1 7:-1 8:1 
25.6207206518108 1:-1 2:-0.0244626 3:-0.998517 4:-1 5:-1 6:-1 7:0.996965 8:-0.996965 
32768 1:-1 2:-1 3:-1 4:-1 5:-1 6:-1 7:-1 8:-1 
58.14559095627958 1:-0.961905 2:-0.830986 3:-0.985174 4:-0.914099 5:-0.950345 6:-0.666667 7:0.809524 8:-0.84127 
46.33930024911084 1:-0.961905 2:-0.980726 3:-0.66642 4:-0.954902 5:-0.616 6:-0.982379 7:-0.891667 8:0.875 
41.34882291440049 1:-0.92381 2:-0.979244 3:-0.792439 4:-0.862993 5:-0.36 6:-0.944444 7:-0.822785 8:0.772152 
1.825338889854037 1:-0.714286 2:-0.82209 3:-0.985174 4:-0.440162 5:-0.68 6:0.2 7:0.655172 8:-0.862069 
4656.456298084327 1:-1 2:-0.986657 3:-0.415864 4:-1 5:-1 6:-1 7:-0.955335 8:0.955335 
32768 1:-1 2:-0.611564 3:-1 4:-1 5:-1 6:-1 7:1 8:-1 
32768 1:-1 2:-0.997035 3:-0.933284 4:-1 5:-1 6:-1 7:-0.914894 8:0.914894 
164.640029102459 1:-0.961905 2:-0.933284 3:-0.971831 4:-0.836007 5:-0.877447 6:-0.809524 7:0.363636 8:-0.424242 
5.947010716549721 1:-0.219048 2:-0.885841 3:-0.613047 4:-0.414558 5:0.000677966 6:-0.728477 7:-0.593668 8:0.377309 
1078.703172740816 1:-0.980952 2:-0.90808 3:-0.5404 4:-0.985491 5:-0.954286 6:-0.993569 7:-0.66756 8:0.662198 
32768 1:-1 2:-0.81616 3:-0.942179 4:-1 5:-1 6:-1 7:0.521472 8:-0.521472 
1.612912053622408 1:0.942857 2:-0.432172 3:-0.924388 4:0.0298507 5:-0.394309 6:0.333333 7:0.429104 8:-0.809701 
275.4231702459916 1:-0.942857 2:-0.704967 3:-0.951075 4:-0.930914 5:-0.957228 6:-0.833333 7:0.693617 8:-0.719149 
32768 1:-1 2:-1 3:-0.971831 4:-1 5:-1 6:-1 7:-1 8:1 
1.60473348114624 1:-0.67619 2:-0.968866 3:-0.988139 4:1 5:0.288421 6:0.36 7:-0.0869565 8:-0.652174 
15.17452992750212 1:-0.828571 2:-0.942179 3:-0.899185 4:-0.580122 5:-0.46 6:-0.766234 7:-0.327586 8:0.172414 
32768 1:-1 2:-0.925871 3:-0.979244 4:-1 5:-1 6:-1 7:0.5625 8:-0.5625 
32768 1:-1 2:-0.992587 3:-0.804299 4:-1 5:-1 6:-1 7:-0.927007 8:0.927007 
9.219977454912049 1:-0.866667 2:-0.906597 3:-0.995552 4:-0.481064 5:-0.712 6:0.4 7:0.726027 8:-0.917808 
32768 1:-1 2:-0.997035 3:-0.830986 4:-1 5:-1 6:-1 7:-0.965517 8:0.965517 
3227.621660243809 1:-0.942857 2:-0.704967 3:-0.879911 4:-0.942631 5:-0.957228 6:-0.928571 7:0.40636 8:-0.427562 
32768 1:-1 2:-1 3:-1 4:-1 5:-1 6:-1 7:-1 8:-1 
3.332673845538805 1:-0.980952 2:-0.992587 3:-0.282431 4:-0.988956 5:-0.52 6:-0.995876 7:-0.979592 8:0.97551 
19.33769129111784 1:-0.885714 2:-0.951075 3:-0.866568 4:-0.74829 5:-0.556923 6:-0.875 7:-0.488372 8:0.395349 
3.21920748226642 1:-0.352381 2:-0.0748703 3:-0.796887 4:-0.768553 5:-0.851185 6:-0.602339 7:0.569811 8:-0.655346 
26200.58647454576 1:-1 2:-0.911045 3:-0.799852 4:-1 5:-1 6:-1 7:-0.384615 8:0.384615 
322.7073059841427 1:-0.942857 2:-0.860638 3:-0.915493 4:-0.894576 5:-0.910928 6:-0.9 7:0.220779 8:-0.25974 
32768 1:-1 2:-1 3:-0.853225 4:-1 5:-1 6:-1 7:-1 8:1 
32768 1:-1 2:-0.942179 3:-0.974796 4:-1 5:-1 6:-1 7:0.392857 8:-0.392857 
1.291630076667067 1:-0.485714 2:-0.968866 3:-0.915493 4:0.391597 5:0.62 6:-0.357143 7:-0.6 8:0.0857143 
32768 1:-1 2:-0.992587 3:-0.957005 4:-1 5:-1 6:-1 7:-0.705882 8:0.705882 
1.720062764256434 1:-0.961905 2:-0.875463 3:-1 4:-0.874145 5:-0.933023 6:1 7:0.953488 8:-1 
12767.38344016295 1:-1 2:-1 3:-0.642698 4:-1 5:-1 6:-1 7:-1 8:1 
32768 1:-1 2:-0.998517 3:-1 4:-1 5:-1 6:-1 7:1 8:-1 
3.712283158001945 1:-0.447619 2:-0.951075 3:-0.750927 4:-0.317647 5:0.347097 6:-0.705584 7:-0.713043 8:0.46087 
1.717294503651534 1:-0.733333 2:-0.949592 3:-0.977761 4:0.202614 5:-0.16 6:-0.0344828 7:0.0793651 8:-0.52381 
1.210344021071036 1:-0.714286 2:-0.918458 3:-0.903632 4:-0.398693 5:-0.382857 6:-0.625 7:-0.185185 8:-0.037037 
1.759741686520518 1:-0.885714 2:-0.992587 3:-0.906597 4:-0.561208 5:0.570909 6:-0.826087 7:-0.864865 8:0.702703 
32768 1:-1 2:-0.922906 3:-0.937732 4:-1 5:-1 6:-1 7:0.106383 8:-0.106383 
32768 1:-1 2:-0.980726 3:-0.94811 4:-1 5:-1 6:-1 7:-0.458333 8:0.458333 
1.263158810837561 1:-0.485714 2:-0.915493 3:-0.968866 4:0.391597 5:-0.0742857 6:0.125 7:0.0857143 8:-0.6 
3083.493430379848 1:-1 2:-0.44848 3:-0.985174 4:-1 5:-1 6:-1 7:0.947644 8:-0.947644 
32768 1:-0.657143 2:-0.955523 3:-0.721275 4:-0.587238 5:0.08 6:-0.825243 7:-0.745763 8:0.59322 
6674.767916783053 1:-1 2:-0.992587 3:-0.839881 4:-1 5:-1 6:-1 7:-0.911504 8:0.911504 
1714.577960659971 1:-0.904762 2:-0.830986 3:-0.924388 4:-0.84083 5:-0.878992 6:-0.821429 7:0.341176 8:-0.4 
32768 1:-1 2:-0.961453 3:-0.925871 4:-1 5:-1 6:-1 7:-0.315789 8:0.315789 
1848.399976228494 1:-0.942857 2:-0.85619 3:-0.850259 4:-0.919227 5:-0.9136 6:-0.942308 7:-0.0348259 8:0.00497512 
32768 1:-1 2:-0.979244 3:-0.997035 4:-1 5:-1 6:-1 7:0.75 8:-0.75 
1.691692230528027 1:-0.542857 2:-0.229059 3:-0.989622 4:-0.764279 5:-0.872941 6:0.548387 7:0.887477 8:-0.974592 
32768 1:-1 2:-0.995552 3:-1 4:-1 5:-1 6:-1 7:1 8:-1 
1282.697282722155 1:-0.980952 2:-0.958488 3:-0.945145 4:-0.918004 5:-0.90069 6:-0.947368 7:-0.151515 8:0.121212 
32768 1:-1 2:-0.577465 3:-1 4:-1 5:-1 6:-1 7:1 8:-1 
11421.40992970994 1:-0.980952 2:-0.945145 3:-0.958488 4:-0.918004 5:-0.924211 6:-0.931034 7:0.121212 8:-0.151515 
1.60413009828775 1:0.409524 2:-0.828021 3:-0.919941 4:0.641273 5:0.121684 6:0.15625 7:-0.0491803 8:-0.557377 
32768 1:-1 2:-0.962936 3:-1 4:-1 5:-1 6:-1 7:1 8:-1 
32768 1:-1 2:-0.982209 3:-0.995552 4:-1 5:-1 6:-1 7:0.6 8:-0.6 
57.85513898256511 1:-0.809524 2:-0.924388 3:-0.506301 4:-0.862646 5:-0.527869 6:-0.941691 7:-0.741117 8:0.690355 
32768 1:-1 2:-0.988139 3:-1 4:-1 5:-1 6:-1 7:1 8:-1 
194.2805362750506 1:-0.92381 2:-0.553744 3:-0.664937 4:-0.959233 5:-0.96223 6:-0.965217 7:0.13371 8:-0.148776 
54.41195840747746 1:-0.92381 2:-0.934766 3:-0.976279 4:-0.661765 5:-0.76 6:-0.6 7:0.375 8:-0.5 
32768 1:-1 2:-0.857672 3:-0.988139 4:-1 5:-1 6:-1 7:0.846154 8:-0.846154 
32768 1:-1 2:-0.991105 3:-1 4:-1 5:-1 6:-1 7:1 8:-1 
47.53904776542127 1:-0.961905 2:-0.99407 3:-0.894737 4:-0.859435 5:-0.04 6:-0.945205 7:-0.896104 8:0.844156 
31421.69453004815 1:-1 2:-0.99407 3:-0.691623 4:-1 5:-1 6:-1 7:-0.962264 8:0.962264 
32768 1:-1 2:-0.998517 3:-1 4:-1 5:-1 6:-1 7:1 8:-1 
32768 1:-1 2:-0.986657 3:-1 4:-1 5:-1 6:-1 7:1 8:-1 
3.988823681649211 1:-0.92381 2:-0.988139 3:-0.227576 4:-0.959386 5:-0.04 6:-0.984762 7:-0.969981 8:0.954972 
32768 1:-1 2:-0.928836 3:-0.915493 4:-1 5:-1 6:-1 7:-0.0857143 8:0.0857143 
32768 1:-1 2:-0.773165 3:-0.998517 4:-1 5:-1 6:-1 7:0.987013 8:-0.987013 
9659.496855641994 1:-0.980952 2:-0.891772 3:-0.893254 4:-0.962933 5:-0.961081 6:-0.972603 8:-0.0136986 
995.8589225458057 1:-0.961905 2:-0.77613 3:-0.85619 4:-0.956706 5:-0.962353 6:-0.959596 7:0.208 8:-0.224 
32768 1:-1 2:-1 3:-1 4:-1 5:-1 6:-1 7:-1 8:-1 
32768 1:-1 2:-0.811712 3:-1 4:-1 5:-1 6:-1 7:1 8:-1 
43.29330008020268 1:-0.942857 2:-0.543365 3:-0.982209 4:-0.949736 5:-0.972219 6:-0.6 7:0.907121 8:-0.925697 
-0.8240810739861151 1:-0.790476 2:-0.716827 3:-0.995552 4:-0.709613 5:-0.843168 6:0.571429 7:0.863415 8:-0.970732 
-788.5092677370865 1:-0.961905 2:-0.899185 3:-0.865085 4:-0.932773 5:-0.917714 6:-0.956989 7:-0.15528 8:0.130435 
-640.2888916645451 1:-0.980952 2:-0.945145 3:-0.931801 4:-0.935574 5:-0.924211 6:-0.957447 7:-0.119048 8:0.0952381 
-23894.31978605251 1:-1 2:-0.884359 3:-0.998517 4:-1 5:-1 6:-1 7:0.974684 8:-0.974684 
-1165.198944589681 1:-0.980952 2:-0.885841 3:-0.949592 4:-0.951681 5:-0.963077 6:-0.942857 7:0.375 8:-0.392857 
-9398.775657774853 1:-1 2:-0.922906 3:-0.844329 4:-1 5:-1 6:-1 7:-0.33758 8:0.33758 
-702.3878827309044 1:-0.92381 2:-0.850259 3:-0.875463 4:-0.885465 5:-0.890286 6:-0.909091 7:0.0687831 8:-0.111111 
-14552.99853539716 1:-1 2:-0.973314 3:-0.830986 4:-1 5:-1 6:-1 7:-0.727273 8:0.727273 
-27411.47853366389 1:-1 2:-0.949592 3:-0.747961 4:-1 5:-1 6:-1 7:-0.666667 8:0.666667 
-1223.990665038985 1:-1 2:-0.90808 3:-0.884359 4:-1 5:-1 6:-1 7:-0.114286 8:0.114286 
-200.7742455279498 1:-0.980952 2:-0.980726 3:-0.973314 4:-0.830882 5:-0.794286 6:-0.894737 7:-0.1875 8:0.125 
-14254.78989176526 1:-1 2:-0.998517 3:-0.945145 4:-1 5:-1 6:-1 7:-0.947368 8:0.947368 
-2575.278415381121 1:-0.961905 2:-0.657524 3:-0.876946 4:-0.965748 5:-0.975279 6:-0.952941 7:0.462025 8:-0.474684 
-254.0144161334153 1:-0.92381 2:-0.909563 3:-0.497405 4:-0.946418 5:-0.822769 6:-0.976676 7:-0.69802 8:0.678218 
-32768 1:-1 2:-0.661972 3:-1 4:-1 5:-1 6:-1 7:1 8:-1 
-32768 1:-1 2:-0.989622 3:-0.804299 4:-1 5:-1 6:-1 7:-0.899281 8:0.899281 
-4238.217993550048 1:-1 2:-0.95404 3:-0.925871 4:-1 5:-1 6:-1 7:-0.234568 8:0.234568 
-1.642626884381534 1:-0.657143 2:-0.971831 3:-0.836916 4:-0.337335 5:0.401081 6:-0.71875 7:-0.741497 8:0.496599 
-1.817498083981842 1:-0.92381 2:-0.660489 3:-0.988139 4:-0.910178 5:-0.950558 6:-0.333333 7:0.900415 8:-0.93361 
-2.747683856565043 1:-0.580952 2:-0.961453 3:-0.733136 4:-0.477812 5:0.32 6:-0.782178 7:-0.77193 8:0.578947 
-2.634734842089034 1:-1 2:-1 3:-1 4:-1 5:-1 6:-1 7:-1 8:-1 
-28108.62904325041 1:-1 2:-0.928836 3:-0.928836 4:-1 5:-1 6:-1 
-0.3529322004384699 1:-0.67619 2:-0.919941 3:-0.982209 4:0.108434 5:-0.310423 6:0.172414 7:0.301205 8:-0.710843 
-26.36966582352606 1:-0.961905 2:-0.451446 3:-0.942179 4:-0.973665 5:-0.984516 6:-0.902439 7:0.800487 8:-0.810219 
-21802.41900331653 1:-1 2:-0.688658 3:-0.998517 4:-1 5:-1 6:-1 7:0.990521 8:-0.990521 
-0.358452288827277 1:0.333333 2:-0.656042 3:-0.752409 4:-0.192274 5:-0.33245 6:-0.409283 7:-0.010661 8:-0.287846 
-1750.692278486755 1:-1 2:-0.863603 3:-0.663454 4:-1 5:-1 6:-1 7:-0.423197 8:0.423197 
-32768 1:-1 2:-0.782061 3:-1 4:-1 5:-1 6:-1 7:1 8:-1 
-43.83029616006831 1:-0.980952 2:-0.997035 3:-0.943662 4:-0.868006 5:-0.04 6:-0.948718 7:-0.902439 8:0.853659 
-32768 1:-1 2:-0.845812 3:-1 4:-1 5:-1 6:-1 7:1 8:-1 
-12768.07472828918 1:-0.980952 2:-0.943662 3:-0.955523 4:-0.921569 5:-0.926154 6:-0.935484 7:0.101449 8:-0.130435 
-9387.803860035679 1:-1 2:-0.991105 3:-0.997035 4:-1 5:-1 6:-1 7:0.5 8:-0.5 
-0.2143125531004055 1:-0.142857 2:-0.538918 3:-0.300222 4:-0.705882 5:-0.635955 6:-0.825919 7:-0.248792 8:0.140097 
-18015.38282862705 1:-1 2:-0.942179 3:-0.918458 4:-1 5:-1 6:-1 7:-0.170213 8:0.170213 
-385.333276011164 1:-0.942857 2:-0.857672 3:-0.964418 4:-0.868006 5:-0.912727 6:-0.777778 7:0.560976 8:-0.609756 
-5556.820576859937 1:-1 2:-0.599703 3:-0.962936 4:-1 5:-1 6:-1 7:0.830508 8:-0.830508 
-176.2106928785984 1:-1 2:-1 3:-0.99407 4:-1 5:-1 6:-1 7:-1 8:1 
-32768 1:-1 2:-0.983692 3:-1 4:-1 5:-1 6:-1 7:1 8:-1 
-1.457674620459558 1:0.00952381 2:-0.733136 3:-0.854707 4:-0.133464 5:-0.344893 6:-0.298013 7:0.0876133 8:-0.407855 
-0.3841223799261682 1:1 2:-0.349148 3:-0.559674 4:-0.324334 5:-0.444118 6:-0.477612 7:0.0439952 8:-0.293698 
-32630.97448344204 1:-1 2:-0.896219 3:-0.925871 4:-1 5:-1 6:-1 7:0.166667 8:-0.166667 
-10503.8421532115 1:-1 2:-0.986657 3:-0.878428 4:-1 5:-1 6:-1 7:-0.802198 8:0.802198 
-74.98485576121824 1:-0.980952 2:-0.955523 3:-0.863603 4:-0.956002 5:-0.907097 6:-0.978495 7:-0.512195 8:0.495935 
-2144.938385501847 1:-0.92381 2:-0.811712 3:-0.90215 4:-0.890116 5:-0.912061 6:-0.885714 7:0.28934 8:-0.329949 
-32767.75515911986 1:-1 2:-1 3:-1 4:-1 5:-1 6:-1 7:-1 8:-1 
-12859.82053671029 1:-1 2:-0.830986 3:-0.986657 4:-1 5:-1 6:-1 7:0.853659 8:-0.853659 
-22.50426145126116 1:-0.790476 2:-0.48851 3:-0.469236 4:-0.916625 5:-0.911011 6:-0.940379 7:-0.0336134 8:0.00280112 
-4730.577742575934 1:-1 2:-0.830986 3:-0.962936 4:-1 5:-1 6:-1 7:0.640288 8:-0.640288 
-9.044869323930298 1:-0.67619 2:-0.218681 3:-0.489993 4:-0.896396 5:-0.91 6:-0.905817 7:0.186937 8:-0.225225 
-32768 1:-1 2:-0.804299 3:-1 4:-1 5:-1 6:-1 7:1 8:-1 
-15898.92738416036 1:-1 2:-0.515196 3:-0.998517 4:-1 5:-1 6:-1 7:0.993902 8:-0.993902 
-32765.99719809336 1:-1 2:-1 3:-1 4:-1 5:-1 6:-1 7:-1 8:-1 
-32768 1:-1 2:-0.997035 3:-0.765752 4:-1 5:-1 6:-1 7:-0.975 8:0.975 
-71.19983518480514 1:-0.961905 2:-0.830986 3:-0.982209 4:-0.915441 5:-0.950345 6:-0.714286 7:0.78125 8:-0.8125 
-0.2433240360707018 1:-0.92381 2:-0.660489 3:-0.988139 4:-0.910178 5:-0.950558 6:-0.333333 7:0.900415 8:-0.93361 
-669.1998081904096 1:-0.980952 2:-0.881394 3:-0.967383 4:-0.947459 5:-0.964444 6:-0.913043 7:0.553398 8:-0.572816 
-9853.127319837551 1:-1 2:-0.965901 3:-0.734618 4:-1 5:-1 6:-1 7:-0.772277 8:0.772277 
-14313.97524560018 1:-1 2:-0.980726 3:-0.945145 4:-1 5:-1 6:-1 7:-0.48 8:0.48 
-32768 1:-1 2:-0.983692 3:-1 4:-1 5:-1 6:-1 7:1 8:-1 
-6650.217638435694 1:-1 2:-0.985174 3:-0.44848 4:-1 5:-1 6:-1 7:-0.947644 8:0.947644 
-42.61112702679579 1:-0.885714 2:-0.481097 3:-0.968866 4:-0.913871 5:-0.951461 6:-0.555556 7:0.856764 8:-0.888594 
-1509.962289144764 1:-1 2:-0.992587 3:-0.99407 4:-1 5:-1 6:-1 7:0.111111 8:-0.111111 
-0.4572322285182798 1:-0.142857 2:-0.470719 3:-0.986657 4:-0.407471 5:-0.677612 6:0.666667 7:0.737226 8:-0.956204 
-17651.54369280089 1:-1 2:-0.980726 3:-1 4:-1 5:-1 6:-1 7:1 8:-1 
-32768 1:-1 2:-0.997035 3:-1 4:-1 5:-1 6:-1 7:1 8:-1 
-20148.04630736512 1:-1 2:-0.976279 3:-0.949592 4:-1 5:-1 6:-1 7:-0.36 8:0.36 
-96.72897475759017 1:-1 2:-0.366938 3:-0.992587 4:-1 5:-1 6:-1 7:0.976852 8:-0.976852 
-0.5025599357433839 1:-0.980952 2:-0.998517 3:-0.997035 4:0.352941 5:0.44 6:-0.333333 7:-0.5 
-9.734990063430573 1:-0.790476 2:-0.911045 3:-0.982209 4:-0.282778 5:-0.553803 6:-0.0434783 7:0.445783 8:-0.710843 
-5.214811041093722 1:-0.161905 2:-0.881394 3:-0.667902 4:-0.315754 5:0.0219355 6:-0.671642 7:-0.54023 8:0.287356 
-30159.6362750291 1:-1 2:-0.814678 3:-0.992587 4:-1 5:-1 6:-1 7:0.923077 8:-0.923077 
-455.2869996213958 1:-1 2:-0.998517 3:-1 4:-1 5:-1 6:-1 7:1 8:-1 
-3.694403106544232 1:-0.847619 2:-0.891772 3:-0.991105 4:-0.502366 5:-0.715556 6:0.142857 7:0.678161 8:-0.862069 
-140.4125073575431 1:-0.752381 2:-0.820608 3:-0.979244 4:-0.524642 5:-0.720597 6:-0.037037 7:0.635135 8:-0.810811 
-28832.70628674031 1:-1 2:-0.968866 3:-0.884359 4:-1 5:-1 6:-1 7:-0.575758 8:0.575758 
-19.20157787319139 1:-0.961905 2:-0.985174 3:-0.872498 4:-0.889556 5:-0.52 6:-0.954545 7:-0.795918 8:0.755102 
-1012.006904009524 1:-0.980952 2:-0.957005 3:-0.985174 4:-0.864706 5:-0.904 6:-0.818182 7:0.45 8:-0.5 
-0.1307532162522387 1:-0.942857 2:-0.992587 3:-0.982209 4:-0.188235 5:0.08 6:-0.6 7:-0.5 8:0.2 
-32768 1:-1 2:-0.988139 3:-0.997035 4:-1 5:-1 6:-1 7:0.6 8:-0.6 
-0.5015633467864447 1:-0.52381 2:-0.983692 3:-0.752409 4:-0.333527 5:1 6:-0.739583 7:-0.891626 8:0.64532 
-208.4353654349889 1:-1 2:-0.915493 3:-0.911045 4:-1 5:-1 6:-1 7:-0.025641 8:0.025641 
-8.593478335158503 1:-1 2:-0.857672 3:-0.221646 4:-1 5:-1 6:-1 7:-0.690821 8:0.690821 
-32768 1:-1 2:-0.983692 3:-0.99407 4:-1 5:-1 6:-1 7:0.466667 8:-0.466667 
-0.386494904044245 1:-1 2:1 3:-0.715345 4:-1 5:-1 6:-1 7:0.750811 8:-0.750811 
-32768 1:-1 2:-0.940697 3:-0.952557 4:-1 5:-1 6:-1 7:0.111111 8:-0.111111 
-27486.06611519973 1:-1 2:-0.986657 3:-0.808747 4:-1 5:-1 6:-1 7:-0.869565 8:0.869565 
-32768 1:-1 2:-1 3:-1 4:-1 5:-1 6:-1 7:-1 8:-1 
-32768 1:-1 2:-0.786509 3:-0.982209 4:-1 5:-1 6:-1 7:0.846154 8:-0.846154 
-8594.953202344106 1:-1 2:-0.805782 3:-0.86212 4:-1 5:-1 6:-1 7:0.169643 8:-0.169643 
-31152.81933767914 1:-1 2:-0.980726 3:-1 4:-1 5:-1 6:-1 7:1 8:-1 
-1.175536748812752 1:-0.466667 2:-0.912528 3:-0.939214 4:0.183824 5:-0.0731034 6:-0.188406 7:-0.078125 8:-0.359375 
-24033.19756231049 1:-1 2:-1 3:-0.90808 4:-1 5:-1 6:-1 7:-1 8:1 
-14.34667701758968 1:-0.866667 2:-0.955523 3:-0.756857 4:-0.811531 5:-0.455135 6:-0.918129 7:-0.701493 8:0.631841 
-21560.65524862663 1:-1 2:-0.922906 3:-0.983692 4:-1 5:-1 6:-1 7:0.650794 8:-0.650794 
-10027.09441882757 1:-0.980952 2:-0.875463 3:-0.871016 4:-0.968536 5:-0.966118 6:-0.977273 7:-0.0232558 8:0.0116279 
-2057.15926889388 1:-1 2:-0.983692 3:-0.998517 4:-1 5:-1 6:-1 7:0.833333 8:-0.833333 
-6459.452314310724 1:-1 2:-0.989622 3:-0.974796 4:-1 5:-1 6:-1 7:-0.416667 8:0.416667 
-1632.694649355909 1:-1 2:-0.826538 3:-0.884359 4:-1 5:-1 6:-1 7:0.2 8:-0.2 
-151.6720476068541 1:-0.92381 2:-0.326909 3:-0.863603 4:-0.960642 5:-0.974847 6:-0.916667 7:0.650909 8:-0.665455 
-773.3561048814444 1:-0.980952 2:-0.601186 3:-0.945145 4:-0.982372 5:-0.989333 6:-0.947368 7:0.752443 8:-0.758958 
-33.00819181067322 1:-0.961905 2:-0.988139 3:-0.876946 4:-0.883618 5:-0.424 6:-0.952941 7:-0.827957 8:0.784946 
-6108.706509992521 1:-1 2:-1 3:-0.99407 4:-1 5:-1 6:-1 7:-1 8:1 
-11.36242242043228 1:-0.619048 2:-0.911045 3:-0.573017 4:-0.705882 5:-0.28 6:-0.87013 7:-0.673913 8:0.565217 
-6398.449562059402 1:-1 2:-0.973314 3:-0.99407 4:-1 5:-1 6:-1 7:0.636364 8:-0.636364 
-32768 1:-1 2:-0.997035 3:-0.897702 4:-1 5:-1 6:-1 7:-0.943662 8:0.943662 
-134.1682258276865 1:-0.961905 2:-0.952557 3:-0.673832 4:-0.957388 5:-0.830588 6:-0.981982 7:-0.748031 8:0.732283 
-53.75102728845571 1:-0.771429 2:-0.841364 3:-0.967383 4:-0.539424 5:-0.70958 6:-0.294118 7:0.51773 8:-0.687943 
-76.73135916336254 1:-1 2:-0.986657 3:-0.0244626 4:-1 5:-1 6:-1 7:-0.973013 8:0.973013 
-32768 1:-1 2:-0.998517 3:-0.684211 4:-1 5:-1 6:-1 7:-0.990654 8:0.990654 
-0.3870891550156803 1:-1 2:-0.178651 3:1 4:-1 5:-1 6:-1 7:-0.417761 8:0.417761 
-11.8802090265776 1:-0.733333 2:-0.930319 3:-0.844329 4:-0.543586 5:-0.339016 6:-0.764706 7:-0.433735 8:0.26506 
-80.43580361367238 1:-1 2:-0.997035 3:-0.979244 4:-1 5:-1 6:-1 7:-0.75 8:0.75 
-45.62324662573227 1:-0.809524 2:-0.787991 3:-0.7702 4:-0.824293 5:-0.811765 6:-0.878788 7:-0.0714286 8:0.00649351 
-21.04079372491202 1:-0.980952 2:-0.473684 3:-0.995552 4:-0.984925 5:-0.99191 6:-0.5 7:0.977716 8:-0.983287 
-5178.493801672105 1:-1 2:-0.782061 3:-0.998517 4:-1 5:-1 6:-1 7:0.986486 8:-0.986486 
-26667.48266072095 1:-1 2:-0.998517 3:-1 4:-1 5:-1 6:-1 7:1 8:-1 
-32768 1:-1 2:-0.614529 3:-1 4:-1 5:-1 6:-1 7:1 8:-1 
-9544.400933657713 1:-1 2:-1 3:-0.945145 4:-1 5:-1 6:-1 7:-1 8:1 
-32766.47435292272 1:-0.657143 2:-0.955523 3:-0.721275 4:-0.587238 5:0.08 6:-0.825243 7:-0.745763 8:0.59322 
-1093.160636139604 1:-0.92381 2:-0.875463 3:-0.951075 4:-0.821099 5:-0.869091 6:-0.783784 7:0.38843 8:-0.454545 
-330.7992801334381 1:-1 2:-1 3:-0.945145 4:-1 5:-1 6:-1 7:-1 8:1 
-29.23597742048171 1:-0.809524 2:-0.295775 3:-0.67828 4:-0.922909 5:-0.940619 6:-0.911894 7:0.353276 8:-0.381766 
-5.187209058739907 1:-0.961905 2:-0.985174 3:-0.872498 4:-0.889556 5:-0.52 6:-0.954545 7:-0.795918 8:0.755102 
-24600.78524364236 1:-1 2:-0.915493 3:-0.992587 4:-1 5:-1 6:-1 7:0.83871 8:-0.83871 
-7834.516341636105 1:-1 2:-0.998517 3:-1 4:-1 5:-1 6:-1 7:1 8:-1 
-32488.54357324914 1:-1 2:-0.928836 3:-0.830986 4:-1 5:-1 6:-1 7:-0.407407 8:0.407407 
-17415.80117919573 1:-1 2:-0.955523 3:-0.99407 4:-1 5:-1 6:-1 7:0.764706 8:-0.764706 
-5496.742899849741 1:-1 2:-0.873981 3:-1 4:-1 5:-1 6:-1 7:1 8:-1 
-770.6875062485911 1:-0.904762 2:-0.808747 3:-0.937732 4:-0.846257 5:-0.892537 6:-0.787234 7:0.465909 8:-0.522727 
-32768 1:-1 2:-0.997035 3:-1 4:-1 5:-1 6:-1 7:1 8:-1 
-22136.12007394012 1:-1 2:-0.844329 3:-0.942179 4:-1 5:-1 6:-1 7:0.458333 8:-0.458333 
-0.3937504174394342 1:0.390476 2:-0.881394 3:-0.796887 4:0.362272 5:0.374118 6:-0.304762 7:-0.448276 8:-0.0551724 
-15.58887086327737 1:-0.961905 2:0.0126019 3:-0.976279 4:-0.98456 5:-0.991591 6:-0.777778 7:0.948645 8:-0.954351 
-2624.484952599696 1:-1 2:-0.998517 3:-0.99407 4:-1 5:-1 6:-1 7:-0.6 8:0.6 
-8656.655399569647 1:-1 2:-0.709414 3:-0.992587 4:-1 5:-1 6:-1 7:0.950249 8:-0.950249 
-10732.51781890244 1:-1 2:-0.997035 3:-0.955523 4:-1 5:-1 6:-1 7:-0.875 8:0.875 
-45.3959392097746 1:-1 2:-0.366938 3:-0.992587 4:-1 5:-1 6:-1 7:0.976852 8:-0.976852 
-1.198253648772037 1:-0.980952 2:-0.998517 3:-0.859155 4:-0.944209 5:0.44 6:-0.979167 7:-0.979381 8:0.958763 
-8.267480659244159 1:-0.961905 2:-0.962936 3:-0.998517 4:-0.613445 5:-0.786667 6:0.333333 7:0.785714 8:-0.928571 
-32768 1:-1 2:-0.998517 3:-0.905115 4:-1 5:-1 6:-1 7:-0.969231 8:0.969231 
-18.88092262125206 1:-0.942857 2:-0.982209 3:-0.543365 4:-0.949736 5:-0.424 6:-0.980707 7:-0.925697 8:0.907121 
-0.07040085160928372 1:-0.733333 2:-0.721275 3:-0.00667161 4:-0.913114 5:-0.800396 6:-0.959064 7:-0.568807 8:0.536697 
-24677.59966513285 1:-1 2:-0.99407 3:-0.961453 4:-1 5:-1 6:-1 7:-0.733333 8:0.733333 
-23.80816533491657 1:-0.92381 2:-0.980726 3:-0.623425 4:-0.920122 5:-0.322353 6:-0.968992 7:-0.904059 8:0.874539 
-455.6555106542655 1:-1 2:-0.911045 3:-0.997035 4:-1 5:-1 6:-1 7:0.935484 8:-0.935484 
-32768 1:-1 2:-0.95404 3:-0.99407 4:-1 5:-1 6:-1 7:0.771429 8:-0.771429 
-32768 1:-1 2:-0.983692 3:-1 4:-1 5:-1 6:-1 7:1 8:-1 
-13857.66869991679 1:-1 2:-0.946627 3:-0.986657 4:-1 5:-1 6:-1 7:0.6 8:-0.6 
-18788.64661134407 1:-1 2:-0.928836 3:-0.968866 4:-1 5:-1 6:-1 7:0.391304 8:-0.391304 
-842.2955682391001 1:-0.942857 2:-0.66642 3:-0.844329 4:-0.951245 5:-0.962105 6:-0.944444 7:0.351351 8:-0.369369 
-32768 1:-1 2:-0.871016 3:-1 4:-1 5:-1 6:-1 7:1 8:-1 
-26231.43633693589 1:-1 2:-0.782061 3:-0.903632 4:-1 5:-1 6:-1 7:0.386792 8:-0.386792 
-53.00455953219552 1:-0.980952 2:-0.804299 3:-0.952557 4:-0.967201 5:-0.978346 6:-0.939394 7:0.6 8:-0.612121 
-1607.235908262455 1:-1 2:-0.958488 3:-0.989622 4:-1 5:-1 6:-1 7:0.6 8:-0.6 
-578.9486487725043 1:-1 2:-0.980726 3:-0.95404 4:-1 5:-1 6:-1 7:-0.409091 8:0.409091 
-55.79283165055558 1:-0.92381 2:-0.922906 3:-0.961453 4:-0.736011 5:-0.794286 6:-0.733333 7:0.268293 8:-0.365854 
-3.044889105772064 1:-0.961905 2:-0.989622 3:-0.961453 4:-0.690756 5:-0.36 6:-0.857143 7:-0.6 8:0.485714 
-13261.98194922424 1:-1 2:-0.869533 3:-0.962936 4:-1 5:-1 6:-1 7:0.557522 8:-0.557522 
-32768 1:-1 2:-1 3:-0.998517 4:-1 5:-1 6:-1 7:-1 8:1 
-1997.286580803777 1:-1 2:-0.629355 3:-0.882876 4:-1 5:-1 6:-1 7:0.519757 8:-0.519757 
-8835.657515132692 1:-1 2:-0.998517 3:-1 4:-1 5:-1 6:-1 7:1 8:-1 
-4551.059592334346 1:-1 2:-0.924388 3:-0.997035 4:-1 5:-1 6:-1 7:0.924528 8:-0.924528 
-502.9985846540749 1:-1 2:-0.986657 3:-0.99407 4:-1 5:-1 6:-1 7:0.384615 8:-0.384615 
-0.3412998421498886 1:-0.295238 2:-0.911045 3:-0.323944 4:-0.637911 5:0.0985567 6:-0.849899 7:-0.783002 8:0.649186 
-15270.06326053303 1:-1 2:-0.830986 3:-0.949592 4:-1 5:-1 6:-1 7:0.540541 8:-0.540541 
-32768 1:-1 2:-0.997035 3:-1 4:-1 5:-1 6:-1 7:1 8:-1 
-10044.61981506155 1:-1 2:-0.945145 3:-0.949592 4:-1 5:-1 6:-1 7:0.0422535 8:-0.0422535 
